1269 60
607 0.703587 0.091748 -1.129812 0.463171 1.516197 1.727196 2.550618 2.098339 2.604288 -2.369193 0.665084 2.505792 0.823597 -0.557092 -0.824531 1.280176 0.909817 1.651867 -0.444935 0.544308 -2.510404 0.195060 -0.471977 0.172060 1.568709 0.518096 1.330364 0.548725 -1.956810 1.121655 -1.587980 -1.719754 0.296805 -0.351629 -0.541764 -2.137418 -1.735742 1.509693 -0.633898 0.315984 -1.918976 -0.341309 1.325376 -0.352411 1.746709 -1.871142 -0.535435 -0.206843 2.333782 1.118532 0.338157 2.441316 -2.660181 2.499874 2.245992 0.411066 1.659688 -2.145198 1.390775 2.172068
604 -0.071885 0.523173 0.611060 -0.351141 -0.829971 -0.051288 -0.123133 3.425270 0.539067 -1.483827 -0.460495 0.767891 0.190116 -0.448814 -1.874165 2.884217 1.189935 0.594525 -1.215083 1.636870 0.394473 -1.244843 -0.308985 0.820219 1.560468 -1.621347 2.390931 2.189071 -1.776374 0.024741 -0.044935 -2.351095 -1.347616 -2.251336 -1.451898 -3.314826 -1.976784 1.576955 0.844702 0.550970 -2.696204 -0.959657 0.091162 1.136868 1.401920 -1.627376 -1.350256 -0.196403 1.657696 -1.009637 0.836060 0.784006 -1.382692 -0.099287 0.930889 -1.631226 -0.025747 -3.640566 1.734512 2.057928
680 0.078502 0.502679 0.197515 0.383127 -0.112181 1.427716 1.480856 1.728873 0.706901 0.008380 0.447613 1.019740 0.551547 -0.902799 -0.948055 1.346706 0.338405 0.086510 -0.260356 -0.007076 -0.586514 0.461683 -0.589323 0.933705 0.907763 -0.063872 1.851036 -0.094329 -1.309221 0.758473 -0.080862 -0.842733 0.585404 -0.116389 -0.787691 -0.679429 -1.755646 0.705606 0.225224 -0.019182 -0.730035 -0.976403 1.646302 -0.066310 1.435436 -0.985546 -0.004711 -1.040794 0.830359 -0.575763 -0.845787 0.256961 -0.983148 -0.251019 0.248196 -0.265817 0.683932 -1.219856 0.502838 1.465371
633 0.120403 0.344159 0.239806 0.283371 -0.061326 1.092989 1.165091 1.372775 0.640547 0.087234 0.412349 0.817996 0.470936 -0.721612 -0.790814 1.003663 0.418815 -0.016384 -0.211871 -0.016782 -0.554576 0.389536 -0.670563 0.775595 0.738868 0.045323 1.647222 -0.173852 -1.045105 0.687840 -0.066582 -0.627592 0.474000 -0.053512 -0.760657 -0.485059 -1.351630 0.623567 0.190492 -0.012167 -0.614555 -0.782167 1.374682 0.028323 1.125060 -0.872594 -0.068595 -0.871617 0.729923 -0.393977 -0.879818 0.274123 -0.728392 -0.159573 0.167887 -0.264198 0.610432 -1.029341 0.451560 1.150323
829 0.136953 0.331463 0.020496 0.293056 0.133888 1.188396 1.265720 1.041251 0.774678 0.062894 0.500979 0.853530 0.491718 -0.636603 -0.628058 0.720547 0.236073 0.143902 -0.202684 -0.209176 -0.759252 0.526634 -0.426394 0.574977 0.642669 0.097305 1.261619 -0.250015 -0.964286 0.705910 -0.182481 -0.489640 0.662615 -0.004828 -0.607511 -0.342042 -1.194365 0.553696 0.047055 0.077064 -0.499678 -0.526613 1.243219 -0.169866 1.091164 -0.800063 0.091812 -0.697519 0.734219 -0.169108 -0.820917 0.385141 -0.904238 0.044381 0.278779 -0.052276 0.570875 -0.802746 0.388345 1.088301
123 -0.587561 0.916986 0.779226 0.481281 0.151852 0.733034 0.870303 1.555485 1.138564 -0.984440 0.643044 1.018157 -0.493448 -0.564215 -0.656306 1.201087 -0.157137 1.341200 -0.390035 0.448980 -0.168919 -0.329154 0.427967 0.397003 0.128489 -0.425660 1.366265 0.799013 -0.669697 0.506703 -0.454769 -0.634497 0.262731 -0.909532 0.073918 -1.286105 -2.008755 -0.083648 -0.173654 0.677355 -1.247406 -0.910964 1.252857 0.438969 1.665250 -0.829764 -0.024211 -0.521922 1.150744 -0.004810 0.405981 0.720472 -0.827768 0.738008 0.326226 -0.139729 0.365185 -1.264950 0.875312 1.891104
233 -0.059314 -0.347797 -0.144088 -0.435497 -0.309049 -0.082004 0.409986 0.924889 -0.263800 -0.163917 -0.159058 0.320870 0.705502 -0.625168 -0.527269 0.731626 0.469761 -0.181510 -0.151242 0.380844 -0.325627 0.089006 -0.807319 0.563305 1.190662 -0.170509 0.853021 0.064725 -0.368740 0.104627 -0.221007 -0.725554 -0.236474 0.053697 -0.920100 -0.592964 -0.500012 0.574264 0.755810 -0.087572 -0.284793 -0.528751 0.287578 0.217548 0.333247 -0.162107 -0.856680 -0.018447 0.394275 -0.267564 -0.099865 0.256284 -0.354005 -0.194545 0.293632 -0.368495 0.189164 -0.641068 0.371902 0.193194
418 -0.611682 0.927410 0.772321 0.486546 0.084233 0.697874 0.856830 1.589603 1.062965 -0.949781 0.627743 0.991785 -0.479231 -0.566856 -0.642836 1.253773 -0.168179 1.336493 -0.393538 0.482245 -0.124187 -0.326793 0.434363 0.436294 0.146104 -0.485822 1.336924 0.820215 -0.678384 0.511257 -0.443294 -0.628137 0.270043 -0.948892 0.080914 -1.287302 -1.988554 -0.087535 -0.107197 0.676197 -1.202524 -0.912125 1.226676 0.419865 1.671318 -0.794699 -0.047788 -0.526672 1.106312 -0.032626 0.402598 0.680526 -0.811265 0.657682 0.310550 -0.150873 0.336536 -1.242435 0.831578 1.886168
512 0.080000 0.299949 0.099295 0.373060 -0.033814 1.218862 1.373671 1.319408 0.737432 0.020962 0.487418 0.920621 0.612609 -0.787084 -0.746672 0.950111 0.361249 0.092592 -0.226508 -0.135360 -0.706883 0.446037 -0.621345 0.773945 0.842946 0.046762 1.480131 -0.191121 -1.132419 0.723658 -0.107357 -0.679315 0.573081 0.018646 -0.790562 -0.447749 -1.419458 0.643943 0.174587 0.026151 -0.613489 -0.687241 1.395419 -0.144641 1.089734 -0.885020 -0.060286 -0.875386 0.839394 -0.407637 -0.833271 0.327992 -0.836581 -0.083472 0.242042 -0.180985 0.698763 -0.927799 0.353016 1.117989
987 0.096455 0.357394 0.150133 0.296344 -0.081724 1.202148 1.327523 1.436576 0.612161 0.088089 0.425861 0.867436 0.602884 -0.784791 -0.787070 1.094045 0.358954 0.000070 -0.215935 -0.059331 -0.594105 0.447251 -0.663838 0.824421 0.870699 0.024313 1.635942 -0.136873 -1.113999 0.714785 -0.091515 -0.682165 0.521712 -0.034101 -0.786260 -0.534780 -1.411081 0.655983 0.212192 -0.009477 -0.611934 -0.827269 1.415864 -0.065334 1.157455 -0.854370 -0.085068 -0.867320 0.714213 -0.488586 -0.809997 0.273549 -0.806103 -0.213699 0.187325 -0.234114 0.605686 -1.041073 0.379570 1.145177
354 0.075818 0.324578 0.169003 0.299034 -0.069074 1.113732 1.285458 1.339566 0.637303 0.057719 0.406584 0.859965 0.563810 -0.754419 -0.738723 0.983920 0.331207 0.034731 -0.246916 -0.076189 -0.564782 0.428492 -0.574004 0.724664 0.787078 0.014591 1.466671 -0.136781 -1.084916 0.660995 -0.066880 -0.685217 0.493303 -0.019918 -0.732497 -0.466788 -1.368731 0.624038 0.194951 -0.023698 -0.566867 -0.730573 1.342392 -0.090191 1.062545 -0.817937 -0.071299 -0.837373 0.691455 -0.461549 -0.734049 0.233768 -0.765828 -0.158052 0.172636 -0.184297 0.609600 -0.939441 0.331350 1.113879
1095 0.442789 0.108376 -0.055280 -0.126832 -0.074675 0.375923 0.565022 0.921146 0.281816 0.097968 0.135602 0.361338 0.693442 -0.391678 -0.347579 0.651460 0.348560 -0.400888 -0.203165 0.136465 -0.412394 0.167661 -0.899903 0.484762 0.771140 0.194164 1.019809 -0.109227 -0.787988 0.321751 -0.286452 -0.592304 0.079782 0.197288 -0.727186 -0.450693 -0.473343 0.554090 0.135704 -0.245632 -0.476374 -0.577074 0.739820 -0.070431 0.340947 -0.628698 -0.515549 -0.303454 0.288844 -0.509890 -0.162671 0.344259 -0.417027 -0.158599 0.072190 -0.179120 0.195885 -0.841055 -0.061638 0.291074
335 0.072831 -0.179143 0.178510 0.011553 0.041528 -0.079984 0.113638 0.720481 0.508314 -0.890983 -0.155672 0.283243 -0.109877 0.167209 -0.384580 0.595542 0.398647 0.198760 -0.365229 0.590011 -0.277558 -0.564378 -0.201570 0.183858 0.570061 -0.180773 0.220461 0.540555 -0.342862 0.091309 -0.118753 -0.679872 -0.442084 -0.541846 -0.312341 -1.036144 -0.627525 0.440510 0.047684 0.129970 -0.740751 -0.182154 -0.056080 0.451241 0.242793 -0.498614 -0.586852 -0.132234 0.519000 0.171641 0.326352 0.596118 -0.254232 0.338745 0.503403 -0.205588 0.084588 -1.010339 0.662596 0.375476
651 0.618313 0.445461 0.805650 0.735909 0.031019 0.026987 -0.265710 1.092009 1.325779 -0.911145 -0.023096 0.603687 -0.234725 0.088906 -0.225649 1.112098 0.907593 0.111984 -0.378058 0.342766 -0.387300 -1.260205 -1.057672 0.391502 -0.019597 0.152752 1.346308 0.716984 -0.947368 -0.053783 -0.327199 -0.778757 -0.286049 -0.351417 -0.423787 -1.256353 -0.807136 0.588631 -0.752031 0.001443 -1.628248 -0.210447 0.646031 0.632325 0.159271 -1.238515 -0.676678 -0.805459 1.185248 -0.432367 0.375440 1.191798 0.076474 0.761910 0.712495 -0.114824 0.554335 -1.347750 0.317033 0.396430
139 0.169262 -0.284120 -0.180237 -0.171569 0.047768 0.165742 0.090895 0.829857 0.536792 -0.570320 0.059359 0.356610 0.136552 0.051593 -0.520765 0.437147 0.305441 0.224001 -0.269396 0.647430 -0.167503 0.081435 -0.232744 0.137268 0.569936 -0.334082 0.375655 0.394075 -0.508230 0.106836 -0.208963 -0.507420 -0.307622 -0.513653 -0.393130 -1.035542 -0.350267 0.423380 -0.089072 0.048630 -0.607913 -0.147313 -0.014399 0.072198 0.086809 -0.297152 -0.360398 0.159048 0.458457 0.037903 0.152176 0.513810 -0.143660 0.460853 0.461129 -0.395448 0.460361 -0.633097 0.468670 0.408101
450 0.624458 0.280760 0.837029 0.458306 0.130105 0.218390 -0.060968 0.986388 1.463766 -0.769778 0.139069 0.539713 0.009504 0.073261 -0.000760 1.136246 0.829909 0.137342 -0.334715 0.228066 -0.506280 -1.000808 -0.873329 0.424856 0.142171 0.304314 1.298789 0.402134 -0.891031 0.056449 -0.357572 -0.774421 -0.405223 -0.263482 -0.431378 -1.322533 -0.827472 0.594538 -0.706464 0.074673 -1.706095 -0.196410 0.859012 0.642066 0.260486 -1.308197 -0.883567 -0.741072 0.959213 -0.471022 0.590746 1.350477 -0.040630 0.718356 0.566072 0.114949 0.453874 -1.406534 0.347202 0.475662
327 -0.555046 0.748966 0.709131 0.412361 0.018854 0.450043 0.578747 1.181925 0.826451 -0.693941 0.435754 0.741954 -0.483699 -0.486412 -0.551113 0.986622 -0.120636 1.012416 -0.339900 0.387179 -0.038143 -0.363967 0.355843 0.368442 0.097545 -0.393681 1.067194 0.642498 -0.514257 0.331436 -0.290886 -0.522592 0.169253 -0.741079 0.034761 -1.021438 -1.635901 -0.094082 -0.133419 0.557397 -0.967745 -0.721312 0.884198 0.442120 1.290648 -0.600688 -0.056662 -0.460306 0.929053 -0.099102 0.367450 0.466443 -0.516597 0.508626 0.212508 -0.187698 0.270573 -1.009376 0.736607 1.505862
548 -0.323073 -0.614957 0.389455 0.229239 -0.012456 0.302827 0.336236 1.302067 0.385775 -1.162204 -0.287718 1.385217 -0.549180 -0.542445 -0.645916 0.987339 1.397581 -0.027084 -0.611103 0.241906 0.238543 -0.702077 0.305598 0.158538 0.135584 -0.523520 0.578514 0.107954 -0.672190 -0.156416 0.399591 -1.345813 -0.825831 -0.496381 -0.483882 -1.039420 -1.427539 0.862912 0.042107 -0.144766 -1.163154 0.214192 0.594974 0.971172 1.107207 -1.068501 0.082027 -0.961044 1.432969 -0.184606 -0.321482 0.263271 -0.488257 0.119976 0.563768 0.251701 0.730632 -1.302031 1.371052 1.579044
998 0.065680 0.391776 0.224060 0.314768 -0.114947 1.175236 1.217542 1.301009 0.611611 0.105242 0.407666 0.798198 0.502816 -0.767645 -0.743735 1.040526 0.266116 0.060545 -0.212181 -0.119454 -0.532109 0.381819 -0.542938 0.795356 0.711877 -0.042490 1.540643 -0.144094 -1.028423 0.634201 -0.030514 -0.599198 0.543567 -0.073523 -0.687624 -0.490071 -1.419452 0.581977 0.167757 0.029995 -0.565489 -0.740828 1.400520 -0.069920 1.152730 -0.776569 -0.013242 -0.878371 0.698918 -0.492642 -0.814416 0.224242 -0.749559 -0.243536 0.171910 -0.164475 0.536231 -0.934927 0.406610 1.153473
698 -0.618830 0.830980 0.784537 0.448344 0.079789 0.573392 0.679507 1.309103 0.957527 -0.791522 0.508398 0.842689 -0.547968 -0.565203 -0.604785 1.077010 -0.146914 1.171696 -0.357013 0.419497 -0.061845 -0.386316 0.423648 0.379505 0.089344 -0.410187 1.215153 0.725718 -0.532573 0.394098 -0.318533 -0.571582 0.215423 -0.796835 0.096084 -1.150465 -1.837766 -0.130729 -0.136363 0.646771 -1.080804 -0.817748 1.010862 0.475466 1.486256 -0.666001 -0.027894 -0.543522 1.023904 -0.069248 0.407476 0.535643 -0.594783 0.599741 0.243109 -0.137062 0.318826 -1.122672 0.847652 1.676890
436 -0.020426 0.058142 0.039545 0.099748 0.151112 0.188533 0.168709 0.530514 0.469592 -0.554148 0.038431 0.429485 -0.024692 -0.092824 -0.261121 0.517749 0.257438 0.294238 -0.148834 0.276204 -0.176859 -0.169633 -0.071098 0.136552 0.206842 -0.133679 0.376765 0.272384 -0.430339 0.150717 -0.185013 -0.502906 -0.197571 -0.348263 -0.272721 -0.697216 -0.495116 0.402072 -0.075723 0.064925 -0.497776 -0.061435 0.183763 0.231364 0.263864 -0.329311 -0.239504 0.001535 0.426750 -0.031589 0.109568 0.401021 -0.430399 0.304314 0.394484 -0.068525 0.229657 -0.642660 0.345756 0.489679
817 0.315174 0.323318 -0.011981 0.955436 -0.208212 -0.066878 0.099858 1.157783 0.658546 -1.066661 -0.114594 0.696138 -0.634245 -0.129953 -1.096525 0.785738 0.996311 0.167613 -0.372600 0.555546 -0.459469 -1.124708 -1.030319 0.390255 0.054180 -0.300058 1.039356 0.918223 -1.192564 -0.252313 -0.250054 -0.799864 0.089556 -0.562020 -0.219247 -0.661655 -0.767949 0.649024 -0.574990 -0.172165 -0.635033 -0.276496 0.114991 0.012188 -0.070386 -0.873144 0.039051 -0.651014 1.347126 -0.026071 -0.378705 0.557145 -0.129187 0.954506 0.988410 -0.587175 0.822686 -0.532048 0.352953 0.289708
186 0.136594 -0.322526 -0.574351 -0.143856 -0.037202 -0.033754 0.555006 0.717353 0.175421 -0.433534 0.114380 0.446057 0.763118 -0.401583 -0.308487 0.545262 0.548058 0.090526 -0.032904 0.314799 -0.524095 0.113835 -0.718683 0.240053 1.079824 0.141014 0.757998 0.005883 -0.710533 0.333013 -0.265245 -0.541684 -0.410153 0.029779 -0.732811 -0.517710 -0.245890 0.827001 0.539685 -0.105159 -0.470300 -0.206187 0.102821 -0.045905 0.230605 -0.462510 -0.539766 -0.148416 0.594746 0.010583 -0.302365 0.416018 -0.473145 0.292843 0.487199 -0.434906 0.349948 -0.772037 0.390051 0.251568
697 0.104626 -0.336125 -0.107811 -0.134231 0.052028 0.266738 0.158268 1.026157 0.739954 -0.587419 0.148303 0.555464 0.095119 0.028299 -0.757556 0.474319 0.394027 0.335068 -0.269834 0.711783 -0.150298 0.186455 -0.218936 0.332123 0.518634 -0.358953 0.549574 0.323218 -0.602508 0.101231 -0.064071 -0.568778 -0.421090 -0.630000 -0.463455 -1.295786 -0.435025 0.539440 -0.213922 -0.010977 -0.739533 -0.283349 0.058733 0.191365 0.119968 -0.310790 -0.166311 0.044734 0.449749 0.099823 0.100881 0.725602 0.085191 0.749652 0.425732 -0.432696 0.760547 -0.669259 0.471465 0.398587
997 -0.243085 -0.415443 0.350728 0.216034 -0.015491 0.282277 0.339198 0.964726 0.302178 -0.758562 -0.147717 1.017047 -0.366074 -0.488887 -0.502703 0.733156 1.022810 -0.066409 -0.406583 0.146541 0.153937 -0.447763 0.120613 0.213904 0.106262 -0.326706 0.544875 -0.023913 -0.491167 -0.089283 0.303477 -0.950445 -0.522300 -0.294112 -0.358333 -0.679698 -1.112186 0.606028 0.031117 -0.126125 -0.807675 0.077202 0.605970 0.689913 0.834987 -0.773696 0.081511 -0.814112 1.034334 -0.155748 -0.345843 0.148195 -0.294883 0.029859 0.352141 0.192877 0.551656 -0.896026 0.970243 1.164572
1216 -0.061118 0.079791 0.014504 0.038644 0.133411 0.100657 0.155394 0.601520 0.288253 -0.418358 0.010648 0.414111 0.008028 -0.088623 -0.312072 0.510826 0.243050 0.258087 -0.119744 0.225762 -0.083139 -0.168027 -0.082822 0.024098 0.224574 -0.152202 0.370460 0.296012 -0.399396 0.063557 -0.128085 -0.481960 -0.120024 -0.279680 -0.149215 -0.595710 -0.485629 0.245931 -0.016309 0.090331 -0.595470 -0.156458 0.209151 0.186304 0.411206 -0.439310 -0.221522 -0.092871 0.405204 0.049744 0.178753 0.427233 -0.386438 0.240422 0.304421 -0.121785 0.115971 -0.664957 0.298565 0.501263
1170 0.089854 -0.018207 -0.041764 -0.226777 -0.303388 0.302283 0.799852 1.231421 0.044049 0.021048 0.094087 0.517211 0.721851 -0.772770 -0.712050 0.937876 0.384427 -0.286109 -0.182395 0.262314 -0.432055 0.169995 -0.882800 0.692969 1.075751 -0.085933 1.292356 -0.046329 -0.724081 0.293312 -0.230253 -0.760353 -0.062428 0.066097 -0.906109 -0.564217 -0.877133 0.677369 0.592881 -0.151904 -0.389458 -0.768289 0.787655 0.116821 0.669533 -0.442404 -0.623890 -0.468753 0.412697 -0.489567 -0.379469 0.220549 -0.474662 -0.290371 0.166907 -0.401116 0.395820 -0.851267 0.246325 0.554024
1235 0.558803 0.325750 0.839953 0.547676 0.091047 0.152361 -0.153095 0.957267 1.349401 -0.743209 0.102758 0.549625 -0.048158 0.138327 -0.040683 1.084751 0.754706 0.145987 -0.344122 0.266036 -0.412554 -1.050353 -0.818739 0.423960 0.051454 0.227178 1.273584 0.455486 -0.819192 0.051732 -0.349299 -0.746356 -0.363492 -0.300801 -0.406502 -1.244820 -0.874999 0.541569 -0.640441 0.068743 -1.614826 -0.243430 0.771279 0.678339 0.280253 -1.216144 -0.823325 -0.724765 0.928600 -0.490325 0.506479 1.250128 0.044166 0.618627 0.482539 0.064778 0.456063 -1.401064 0.337182 0.525663
117 0.118773 -0.108118 -0.013446 -0.102175 0.052710 -0.007166 0.286184 0.610752 0.301243 -0.544833 0.033690 0.373108 0.158293 -0.328909 -0.312798 0.470619 0.300575 0.143342 -0.121155 0.286305 -0.253458 -0.062926 -0.330383 0.093661 0.491458 -0.045135 0.449967 0.212678 -0.438204 0.072358 -0.304639 -0.527756 -0.191381 -0.234430 -0.447616 -0.617353 -0.550854 0.529987 0.107769 0.111200 -0.567642 -0.198225 0.178038 0.216965 0.408009 -0.379670 -0.322243 -0.062197 0.552676 -0.123438 0.064112 0.400550 -0.284298 0.269832 0.326369 -0.144504 0.230680 -0.671240 0.266687 0.442491
687 0.084470 -0.237633 -0.256185 -0.263311 0.108681 0.245113 0.254536 1.200098 0.689004 -0.681451 0.145192 0.585702 0.106760 0.099831 -0.768902 0.497441 0.423642 0.457817 -0.172197 0.767831 -0.181740 0.260213 -0.075017 0.334793 0.670347 -0.543265 0.466179 0.543300 -0.481597 0.092518 -0.150897 -0.673678 -0.643190 -0.709458 -0.605505 -1.476663 -0.447301 0.638085 -0.214306 -0.019619 -0.768035 -0.274802 -0.134930 0.270089 0.167420 -0.323968 -0.165608 0.353523 0.410060 0.271673 0.363902 0.885623 -0.008646 1.022380 0.532254 -0.528875 0.839978 -0.711960 0.461605 0.476397
758 0.057255 -0.039471 -0.083684 -0.027979 -0.059699 0.083402 0.374055 0.698771 0.323452 -0.239707 0.073562 0.391504 0.309446 -0.279605 -0.315816 0.495595 0.302760 0.148462 -0.115566 0.230630 -0.268323 -0.093897 -0.337798 0.248839 0.560630 -0.065022 0.685891 0.144492 -0.503872 0.200600 -0.154449 -0.421695 -0.163389 -0.170277 -0.391178 -0.461446 -0.467016 0.435306 0.238684 -0.024524 -0.440928 -0.242228 0.340856 0.068257 0.387850 -0.386605 -0.250265 -0.263127 0.451371 -0.097936 -0.147286 0.365516 -0.297204 0.182219 0.267345 -0.187507 0.240267 -0.579613 0.303039 0.395494
834 -0.441419 0.631237 0.606249 0.349560 0.021313 0.430812 0.556746 0.961574 0.648369 -0.504707 0.440915 0.589302 -0.360638 -0.436342 -0.393265 0.777159 -0.165522 0.806612 -0.212541 0.248402 -0.036578 -0.202188 0.234778 0.345322 0.025452 -0.287790 0.913564 0.449153 -0.374737 0.310832 -0.250653 -0.335060 0.217065 -0.535334 0.069989 -0.703991 -1.340096 -0.146136 -0.053580 0.407004 -0.704642 -0.655410 0.888915 0.304281 1.095435 -0.459178 -0.021173 -0.420373 0.647702 -0.090664 0.207369 0.373891 -0.415656 0.333591 0.110482 -0.054073 0.222024 -0.709495 0.484317 1.171965
192 0.268224 0.347241 -0.009998 0.972236 -0.214489 0.033155 0.212723 1.259343 0.693996 -1.058373 -0.068203 0.757745 -0.608183 -0.244990 -1.176800 0.881200 1.034972 0.200020 -0.391056 0.534732 -0.449942 -1.104690 -1.065634 0.442791 0.102006 -0.316102 1.155262 0.873120 -1.266511 -0.177707 -0.229952 -0.823996 0.167285 -0.558872 -0.295495 -0.664544 -0.929328 0.696352 -0.520975 -0.190605 -0.659342 -0.322522 0.250234 -0.009542 0.061105 -0.896869 0.078255 -0.721588 1.408425 -0.039335 -0.450660 0.519217 -0.180445 0.899107 1.020461 -0.594588 0.873607 -0.568191 0.399687 0.379745
527 -0.311925 -0.620323 0.404134 0.206881 0.003451 0.304723 0.369737 1.258475 0.380317 -1.052008 -0.243948 1.334406 -0.507262 -0.564441 -0.599072 0.936972 1.363607 -0.069058 -0.556825 0.220289 0.234819 -0.613383 0.269145 0.192276 0.141914 -0.471419 0.574239 0.031975 -0.615379 -0.151914 0.395278 -1.297907 -0.771759 -0.441469 -0.449129 -0.952216 -1.371775 0.829176 0.057949 -0.142692 -1.107365 0.203016 0.641547 0.908541 1.069902 -1.012803 0.095297 -0.966942 1.340879 -0.170292 -0.358064 0.208336 -0.434417 0.060410 0.489662 0.272723 0.697077 -1.211275 1.307632 1.526788
51 -0.548703 0.741040 0.713308 0.414808 0.023921 0.451696 0.523833 1.162212 0.827220 -0.704739 0.426928 0.734195 -0.518328 -0.484544 -0.565650 0.980500 -0.085666 1.029608 -0.361328 0.378305 -0.021362 -0.416566 0.362335 0.323495 0.080928 -0.403978 1.090718 0.668565 -0.464998 0.334937 -0.270480 -0.523220 0.148058 -0.732600 0.050121 -1.046791 -1.604044 -0.094312 -0.149931 0.584819 -0.985036 -0.707596 0.832209 0.447438 1.278734 -0.594691 -0.031585 -0.484659 0.949181 -0.092291 0.379294 0.452594 -0.470589 0.499795 0.205225 -0.189139 0.288268 -1.044583 0.774773 1.485658
1114 0.210805 -0.311268 -0.284578 -0.401366 0.010608 -0.303268 0.422704 0.746424 0.121306 -0.691494 0.054976 0.380791 0.521833 -0.500889 -0.394451 0.434650 0.504850 -0.022119 -0.082558 0.552765 -0.517161 -0.008578 -0.725496 0.030535 0.949655 0.057225 0.510424 0.186575 -0.451872 0.038552 -0.601493 -0.833328 -0.456819 -0.096214 -0.815119 -0.753074 -0.396512 0.892129 0.284628 0.059358 -0.604358 -0.231339 0.019313 0.165365 0.359367 -0.420232 -0.633672 0.205541 0.641110 -0.185418 0.129563 0.568744 -0.423547 0.230368 0.423691 -0.257380 0.315351 -0.875655 0.243483 0.347821
177 0.060845 -0.012025 -0.136205 0.053061 0.052969 -0.110873 0.261216 0.503506 0.514358 -0.659101 -0.215622 0.282878 0.188911 -0.108120 -0.456189 0.577654 0.295307 0.085229 -0.307040 0.401026 -0.385041 -0.074467 -0.206544 0.078503 0.536274 -0.147907 0.403621 0.144847 -0.608269 0.040629 -0.286247 -0.361199 -0.327912 -0.299025 -0.284498 -0.713007 -0.657264 0.353496 0.103204 0.199422 -0.638874 -0.171825 0.301588 0.099817 0.306176 -0.324888 -0.133504 -0.062117 0.588710 -0.100644 0.225908 0.318963 -0.334247 0.167108 0.244311 -0.203529 0.201337 -0.674219 0.589917 0.540244
1082 -0.384593 0.561991 0.531497 0.362634 0.082019 0.450218 0.537503 0.891926 0.715158 -0.563841 0.422677 0.608691 -0.363992 -0.358241 -0.354118 0.718123 -0.115422 0.803284 -0.215154 0.239819 -0.086606 -0.204941 0.259283 0.282975 0.015331 -0.230880 0.806131 0.439990 -0.383758 0.294049 -0.264840 -0.339197 0.200731 -0.515369 0.097570 -0.700330 -1.249222 -0.112949 -0.136261 0.390891 -0.703126 -0.542051 0.822040 0.270517 1.021764 -0.483092 0.016798 -0.386782 0.686301 -0.006227 0.214022 0.431164 -0.429914 0.435262 0.169111 -0.022368 0.250251 -0.692369 0.488685 1.139174
1256 -0.076967 0.031386 0.093066 -0.191887 -0.233838 0.083249 0.480776 0.903446 0.026349 -0.063428 0.075225 0.315407 0.431396 -0.586795 -0.492248 0.678105 0.156842 -0.050636 -0.142571 0.268629 -0.247447 0.017507 -0.579007 0.501799 0.723053 -0.139967 0.934376 0.104458 -0.387517 0.142817 -0.241550 -0.519377 -0.060343 -0.008379 -0.589617 -0.454241 -0.676202 0.338808 0.438096 0.001161 -0.302648 -0.631307 0.542320 0.149961 0.518900 -0.235825 -0.553113 -0.259505 0.296832 -0.307444 -0.066317 0.235521 -0.307334 -0.125708 0.106560 -0.265638 0.199754 -0.567703 0.210340 0.429113
326 0.106162 -0.099636 -0.075532 -0.085327 -0.046565 0.100604 0.486463 0.686168 0.248710 -0.300646 0.102460 0.401403 0.389829 -0.415027 -0.371587 0.479829 0.349102 -0.008759 -0.089357 0.256995 -0.378761 0.007053 -0.555315 0.267268 0.640317 0.020208 0.682781 0.023911 -0.486581 0.185542 -0.285591 -0.521044 -0.127215 -0.011430 -0.547903 -0.472657 -0.522637 0.513106 0.194034 -0.018621 -0.427755 -0.325569 0.384839 0.111059 0.371763 -0.391574 -0.371148 -0.213766 0.488057 -0.153394 -0.144131 0.383681 -0.300957 0.155338 0.265214 -0.167229 0.339593 -0.620445 0.226510 0.396462
547 0.359900 0.215227 0.585899 0.434731 0.024496 0.127264 -0.029522 0.663752 0.906982 -0.500960 0.085644 0.424630 -0.033889 0.035118 -0.112843 0.741337 0.552738 0.056853 -0.221006 0.172840 -0.290512 -0.698589 -0.628191 0.302689 0.027601 0.155515 0.904195 0.245546 -0.564509 0.041693 -0.239949 -0.502002 -0.196618 -0.147777 -0.310014 -0.772706 -0.668168 0.364246 -0.447716 0.006422 -1.056020 -0.178484 0.587526 0.445663 0.235303 -0.808590 -0.484873 -0.569725 0.722661 -0.319740 0.229215 0.819025 0.053899 0.418931 0.341850 0.044001 0.371655 -0.891652 0.246210 0.364100
49 0.181006 -0.251202 -0.250281 -0.213140 -0.065766 -0.072959 0.501711 0.706520 0.133473 -0.369434 0.088500 0.382677 0.615452 -0.455340 -0.397264 0.460648 0.391134 -0.052949 -0.075729 0.404050 -0.481840 0.042212 -0.727249 0.234393 0.962695 0.089671 0.655084 0.008258 -0.506496 0.173147 -0.384220 -0.641239 -0.288337 0.038713 -0.713277 -0.527703 -0.376267 0.661892 0.381789 -0.057592 -0.415500 -0.307258 0.227772 0.060434 0.282021 -0.344791 -0.569303 -0.096356 0.464098 -0.146982 -0.157254 0.417121 -0.363127 0.144297 0.294295 -0.269322 0.323168 -0.692364 0.198919 0.261039
592 -0.009213 0.063679 0.057184 -0.020991 -0.042108 0.144950 0.245215 0.529261 0.328420 -0.402636 0.033771 0.269916 0.064665 -0.151356 -0.320802 0.471383 0.215487 0.153078 -0.123342 0.166466 -0.179256 -0.090538 -0.107220 0.119582 0.312948 -0.157129 0.406961 0.208287 -0.379130 0.064327 -0.144696 -0.437532 -0.161242 -0.225091 -0.253264 -0.482541 -0.482997 0.334166 0.080310 0.039535 -0.483101 -0.147257 0.151876 0.124622 0.355882 -0.362800 -0.126849 -0.143236 0.342268 -0.077695 0.056049 0.245270 -0.273811 0.213708 0.249600 -0.192227 0.179609 -0.623828 0.346657 0.448497
903 0.118686 0.070785 -0.062860 -0.055602 -0.038989 0.090748 0.283567 0.666178 0.324790 -0.355616 0.064925 0.335355 0.201229 -0.125217 -0.428420 0.477848 0.231885 0.167217 -0.211519 0.249564 -0.140806 -0.071735 -0.191914 0.202923 0.469894 -0.197927 0.485926 0.190284 -0.425842 0.042601 -0.146069 -0.503118 -0.156604 -0.257118 -0.321678 -0.622297 -0.406188 0.359397 0.060003 0.072720 -0.487652 -0.275434 0.241980 0.096003 0.303076 -0.303321 -0.291680 -0.040765 0.474863 -0.078633 0.074194 0.301795 -0.322142 0.215042 0.263031 -0.143132 0.181903 -0.663307 0.303277 0.422566
1 0.059139 -0.223977 -0.137834 -0.236695 -0.132030 -0.012467 0.425865 0.720504 0.104014 -0.205644 0.011263 0.313920 0.531967 -0.427880 -0.436999 0.507866 0.376133 -0.111525 -0.078238 0.287118 -0.351990 0.015308 -0.622042 0.363094 0.814297 -0.046274 0.687189 0.064591 -0.417794 0.118303 -0.250829 -0.535273 -0.194882 0.028109 -0.648797 -0.508950 -0.418009 0.493785 0.384706 -0.113650 -0.340713 -0.362816 0.288823 0.123311 0.269687 -0.312353 -0.531160 -0.136726 0.385881 -0.170222 -0.105333 0.374408 -0.281949 0.079445 0.251086 -0.242518 0.276713 -0.537352 0.194433 0.247339
453 0.054007 0.054509 0.036477 -0.051328 -0.016927 0.102524 0.172732 0.587029 0.245201 -0.290711 0.000223 0.295865 0.128563 -0.156623 -0.371583 0.475523 0.227307 0.154433 -0.151154 0.240951 -0.129828 -0.117935 -0.108014 0.187811 0.362535 -0.175234 0.478824 0.233499 -0.337771 0.061906 -0.096612 -0.410841 -0.118537 -0.300672 -0.274015 -0.534607 -0.439376 0.338689 0.084353 0.086917 -0.465284 -0.218071 0.146952 0.148814 0.345386 -0.314992 -0.243459 -0.106294 0.361552 -0.073677 0.088824 0.226120 -0.291896 0.127729 0.217681 -0.174098 0.136340 -0.568441 0.278404 0.419604
973 0.099778 -0.039057 0.042998 -0.039762 -0.083331 0.154574 0.495997 0.727809 0.218314 -0.221593 0.115667 0.370627 0.358954 -0.462561 -0.439804 0.517604 0.332415 -0.081272 -0.103045 0.223914 -0.324084 0.019500 -0.583949 0.308322 0.615572 0.006887 0.751427 0.017457 -0.507170 0.182078 -0.241912 -0.535601 -0.080416 -0.010467 -0.577429 -0.441095 -0.605617 0.494824 0.203770 -0.044307 -0.419764 -0.387282 0.487902 0.113483 0.413203 -0.394159 -0.357302 -0.271840 0.449305 -0.278794 -0.184778 0.310848 -0.265389 0.019311 0.202159 -0.190017 0.326202 -0.615038 0.162390 0.425918
1044 0.265179 0.325832 0.044068 0.959293 -0.198365 0.021150 0.180244 1.147331 0.637550 -0.978939 -0.070596 0.743876 -0.640724 -0.204493 -1.106849 0.841751 0.986997 0.160095 -0.360853 0.527700 -0.400675 -1.102946 -0.983458 0.396740 0.056079 -0.353862 1.084674 0.867321 -1.187899 -0.230521 -0.240812 -0.740210 0.131039 -0.541147 -0.252971 -0.589656 -0.889408 0.667705 -0.521348 -0.181307 -0.617365 -0.331365 0.197606 -0.005414 0.047918 -0.861937 0.099317 -0.670202 1.343640 -0.075304 -0.437100 0.460193 -0.158370 0.871215 0.945158 -0.542040 0.840866 -0.520911 0.352866 0.349821
1222 0.070782 0.023236 -0.074382 0.006639 0.030590 0.141384 0.307769 0.687068 0.427333 -0.492574 0.085028 0.318975 0.086017 -0.044791 -0.351270 0.435199 0.229522 0.202122 -0.154240 0.287457 -0.275614 -0.055182 -0.067356 0.073233 0.441169 -0.163073 0.377124 0.305136 -0.390482 0.060273 -0.263039 -0.418674 -0.148697 -0.237026 -0.278377 -0.670218 -0.459364 0.367247 0.011557 0.110628 -0.554657 -0.154064 0.143739 0.170026 0.265267 -0.336077 -0.240895 -0.078431 0.486571 -0.010358 0.169693 0.372776 -0.405593 0.375650 0.414693 -0.123672 0.152378 -0.583452 0.347466 0.440388
1265 0.374701 0.220847 0.542196 0.430285 0.014868 0.147378 0.019047 0.635872 0.849132 -0.375296 0.089738 0.398942 0.021165 -0.002665 -0.121266 0.709977 0.521725 -0.010527 -0.206578 0.125402 -0.294439 -0.631129 -0.703645 0.329668 0.059253 0.198527 0.936674 0.171127 -0.580251 0.062457 -0.225839 -0.481484 -0.124591 -0.078592 -0.346222 -0.656116 -0.631238 0.357112 -0.408213 -0.035376 -0.949380 -0.230316 0.617717 0.378773 0.204456 -0.768841 -0.455352 -0.591176 0.646616 -0.355973 0.139206 0.744132 0.070161 0.347686 0.292779 0.041727 0.371906 -0.820817 0.160742 0.316639
714 0.180462 -0.208984 -0.188711 -0.187161 0.276816 0.026938 0.512211 0.641031 0.516608 -0.584654 0.237579 0.399968 0.446804 -0.045766 -0.406516 0.455969 0.194237 0.468449 -0.241831 0.506231 -0.444132 -0.046545 -0.025891 0.076632 0.671592 -0.143540 0.357619 0.275132 -0.328407 0.225015 -0.372977 -0.669161 -0.267589 -0.099429 -0.317463 -0.868540 -0.495952 0.418528 -0.007343 -0.004308 -0.500785 -0.021194 -0.079819 0.006495 0.387747 -0.403575 -0.353533 0.095203 0.525551 0.263394 0.292764 0.667965 -0.681163 0.488290 0.555715 -0.010434 0.138796 -0.758713 0.249757 0.485094
1209 0.063217 0.192971 0.106154 0.181485 -0.088838 0.708995 0.847187 0.953400 0.375845 0.067911 0.260485 0.565857 0.392529 -0.575671 -0.527820 0.716200 0.245962 -0.069738 -0.131727 -0.008262 -0.377534 0.252355 -0.512103 0.564591 0.603028 0.029558 1.100932 -0.152372 -0.717306 0.417659 -0.083491 -0.468160 0.296106 0.051596 -0.564457 -0.316315 -0.960183 0.448458 0.178591 -0.044347 -0.377713 -0.556102 0.941586 -0.012149 0.753728 -0.572098 -0.089746 -0.612507 0.492585 -0.356354 -0.548289 0.185084 -0.482520 -0.154780 0.123370 -0.170144 0.414092 -0.661760 0.240823 0.723717
746 0.065962 -0.003973 -0.057325 -0.012246 0.052161 0.083969 0.369277 0.681980 0.315687 -0.434296 0.220779 0.397723 0.244352 -0.202177 -0.354699 0.419933 0.143450 0.279398 -0.112421 0.402933 -0.363102 -0.147912 -0.176949 0.184554 0.473185 -0.184293 0.400454 0.193556 -0.393373 0.192785 -0.284914 -0.502897 -0.101956 -0.154411 -0.360046 -0.637417 -0.530234 0.380229 0.056988 0.029694 -0.384033 -0.189128 0.149013 0.032402 0.435951 -0.378276 -0.264652 -0.091192 0.483938 0.062430 0.157937 0.457570 -0.424278 0.293285 0.396030 -0.047608 0.185920 -0.622776 0.273038 0.450325
454 0.067351 0.060689 -0.033233 0.087231 0.038490 0.149362 0.307064 0.471576 0.368387 -0.316485 0.085277 0.284623 0.107633 -0.149314 -0.252834 0.332972 0.176893 0.234458 -0.097912 0.137339 -0.216945 -0.073650 -0.148754 0.118916 0.288775 -0.056112 0.363673 0.121561 -0.309949 0.169240 -0.156254 -0.279119 -0.033321 -0.189535 -0.156168 -0.390944 -0.379160 0.258067 0.015012 0.088803 -0.350833 -0.165665 0.265270 0.084105 0.290353 -0.273894 -0.140197 -0.092425 0.348458 0.028928 0.036010 0.309907 -0.333326 0.274934 0.252115 -0.066872 0.211759 -0.460571 0.230302 0.401333
1125 -0.030238 -0.191588 -0.026844 -0.151491 -0.152672 -0.007928 0.351398 0.728622 0.136710 -0.368395 0.021722 0.345283 0.369701 -0.455738 -0.466972 0.589236 0.406383 0.000654 -0.116050 0.329193 -0.322036 -0.088332 -0.546923 0.384053 0.740440 -0.127541 0.677011 0.135452 -0.387587 0.065875 -0.246070 -0.592994 -0.169277 -0.081204 -0.582768 -0.603411 -0.577022 0.448955 0.306355 -0.026594 -0.419053 -0.356973 0.335609 0.241265 0.367584 -0.333211 -0.540743 -0.180637 0.488583 -0.184871 -0.029901 0.416032 -0.230322 0.082732 0.285276 -0.238060 0.295444 -0.571331 0.293507 0.343239
534 0.055730 0.080675 0.026369 0.099844 0.084959 0.257453 0.347715 0.411404 0.379511 -0.355836 0.073821 0.314644 0.077341 -0.124432 -0.220751 0.314929 0.116715 0.244757 -0.092691 0.169421 -0.252015 -0.040424 -0.097709 0.111598 0.269046 -0.061258 0.348681 0.165993 -0.335428 0.186349 -0.191291 -0.263386 0.017405 -0.113566 -0.163518 -0.377679 -0.395341 0.240980 -0.076914 0.073372 -0.406797 -0.163626 0.240002 0.053110 0.355172 -0.293336 -0.156873 -0.140006 0.362199 0.049564 0.057275 0.334316 -0.355255 0.307575 0.303912 -0.048253 0.188169 -0.473685 0.294222 0.417044
1204 0.181631 -0.298823 0.286064 0.148318 -0.080874 0.199904 0.375670 0.386044 1.015802 -1.142054 -0.338688 0.133310 0.351910 0.254616 -1.037603 0.512342 0.074304 0.077732 0.398860 0.170443 -1.091311 -0.490558 -0.188746 0.684477 0.378602 -0.498713 0.253723 0.107309 -0.549184 0.166875 -0.538502 -0.330873 -0.014053 -0.702345 -0.416163 -0.813045 -1.317286 0.850892 0.108135 0.298487 -0.698580 -0.093933 0.562121 0.611460 0.429557 -0.609309 -0.637986 0.205970 1.019434 0.682019 0.250715 0.841580 -0.533821 0.616734 1.048740 -0.603357 0.748158 -0.770480 0.689469 0.787598
1124 -0.006264 0.060350 0.096041 0.035680 -0.029677 0.145877 0.173976 0.461896 0.242084 -0.286505 0.042660 0.284841 -0.009553 -0.151811 -0.261277 0.400236 0.183133 0.153616 -0.126905 0.178305 -0.115801 -0.112961 -0.075546 0.138533 0.212300 -0.111252 0.412831 0.217309 -0.300963 0.074441 -0.119791 -0.290915 -0.082296 -0.270964 -0.160259 -0.422798 -0.410894 0.210430 0.011472 0.095913 -0.416931 -0.178172 0.176010 0.160626 0.342850 -0.314466 -0.135302 -0.141870 0.311085 -0.083788 0.069489 0.199504 -0.211483 0.157493 0.186436 -0.132461 0.127590 -0.468587 0.255483 0.411962
1026 0.044595 0.046836 0.012375 0.106919 0.096887 0.225568 0.300838 0.419983 0.352869 -0.265456 0.101450 0.300454 0.065058 -0.133235 -0.238857 0.277129 0.153073 0.171836 -0.089469 0.127483 -0.218948 -0.082923 -0.155463 0.129175 0.224537 -0.038820 0.346269 0.085572 -0.337926 0.146784 -0.144937 -0.275447 0.019662 -0.159827 -0.140762 -0.373379 -0.424098 0.233408 -0.032317 0.052167 -0.328882 -0.141034 0.294723 0.047385 0.299027 -0.302937 -0.093180 -0.117625 0.374019 0.000799 0.026313 0.267437 -0.264628 0.207068 0.205016 -0.066093 0.232290 -0.361922 0.209622 0.377897
747 0.033414 -0.082170 -0.043952 -0.215707 -0.286513 0.145426 0.637579 1.013864 0.018596 -0.036790 0.042116 0.417368 0.619044 -0.706485 -0.606889 0.795206 0.336549 -0.232193 -0.172712 0.289870 -0.392490 0.083777 -0.808777 0.592543 0.956754 -0.057194 1.072334 0.012932 -0.579212 0.175303 -0.230984 -0.692304 -0.102428 0.086857 -0.799082 -0.467403 -0.704672 0.593418 0.546683 -0.084259 -0.353669 -0.647270 0.571582 0.153702 0.515393 -0.337307 -0.615854 -0.377195 0.407063 -0.416579 -0.307453 0.266889 -0.382623 -0.208813 0.210974 -0.338903 0.362623 -0.664520 0.246745 0.399834
821 -0.001852 0.047652 0.020552 0.033680 0.096150 0.168870 0.268136 0.410968 0.288460 -0.332494 0.089768 0.334741 0.064451 -0.137472 -0.197254 0.340901 0.186455 0.211583 -0.079346 0.139735 -0.222463 -0.059082 -0.067860 0.102227 0.209364 -0.065997 0.351392 0.127286 -0.303055 0.091130 -0.107045 -0.288554 -0.066463 -0.171613 -0.147454 -0.419712 -0.367516 0.254589 -0.037162 0.096908 -0.371347 -0.127682 0.246214 0.063663 0.287104 -0.315716 -0.095230 -0.091352 0.357815 0.007628 0.029670 0.287440 -0.286969 0.192537 0.209284 -0.076069 0.197277 -0.422482 0.227659 0.394829
708 0.009630 0.076025 -0.018175 0.088465 0.045588 0.186104 0.326282 0.415888 0.287039 -0.228627 0.046112 0.330235 0.053904 -0.151392 -0.249259 0.330459 0.196635 0.174732 -0.126850 0.100102 -0.207711 -0.072217 -0.122875 0.160363 0.250308 -0.028352 0.338448 0.107436 -0.310125 0.145630 -0.157274 -0.312904 0.022184 -0.102020 -0.166487 -0.326751 -0.382442 0.240083 0.015429 0.072095 -0.342266 -0.130071 0.276337 0.038481 0.320083 -0.271416 -0.076260 -0.143735 0.343515 -0.005531 -0.026539 0.235613 -0.308081 0.208508 0.244224 -0.042226 0.235946 -0.372743 0.190959 0.382820
704 0.015675 -0.028734 0.026075 -0.080665 -0.175546 0.140490 0.492776 0.810468 0.148373 -0.164036 0.076185 0.401363 0.381191 -0.492586 -0.471175 0.619406 0.298963 -0.084368 -0.144182 0.234941 -0.297730 -0.011499 -0.569817 0.440728 0.676104 -0.076610 0.839583 0.040895 -0.488654 0.166452 -0.194669 -0.542814 -0.085109 -0.012964 -0.573350 -0.454675 -0.642123 0.453346 0.318618 -0.043367 -0.383922 -0.472505 0.499764 0.147989 0.443028 -0.344292 -0.425420 -0.304215 0.419610 -0.259259 -0.194054 0.294214 -0.288074 -0.038920 0.212426 -0.224246 0.308302 -0.589522 0.263089 0.405986
650 0.108681 -0.151367 0.226639 0.136100 -0.073173 0.178047 0.297098 0.335759 0.641101 -0.658859 -0.156566 0.138052 0.222363 0.077463 -0.650804 0.381222 0.088096 0.050413 0.213785 0.116893 -0.666293 -0.296372 -0.199693 0.465432 0.265727 -0.276933 0.306682 0.040388 -0.392793 0.130275 -0.318889 -0.252389 0.011325 -0.401998 -0.300018 -0.508741 -0.879188 0.532002 0.038017 0.168002 -0.459298 -0.137622 0.460252 0.377163 0.318617 -0.429892 -0.389294 0.013557 0.651101 0.337567 0.089245 0.521022 -0.322564 0.359897 0.597346 -0.368013 0.498480 -0.507328 0.420234 0.526368
45 0.171034 -0.001254 -0.163414 -0.104201 0.187357 0.146734 0.230769 0.653400 0.434848 -0.531805 -0.133927 0.371091 0.202741 -0.012289 -0.236522 0.347098 0.303896 0.362539 -0.276120 0.408822 -0.274183 -0.175137 0.095119 -0.043259 0.334954 -0.105795 0.163376 0.316826 -0.340353 0.183511 -0.180338 -0.456134 -0.292825 -0.311077 -0.188225 -0.652802 -0.396256 0.434496 0.034840 0.063103 -0.586813 -0.104139 -0.016322 0.126693 0.268240 -0.428139 -0.209495 0.178925 0.486517 0.166296 0.311645 0.421261 -0.558062 0.349058 0.383948 -0.203722 0.144733 -0.733878 0.359492 0.504723
871 0.048653 0.094928 0.002691 0.042158 0.056780 0.200998 0.217003 0.420836 0.295195 -0.309889 0.083844 0.267153 0.079627 -0.109896 -0.202927 0.332771 0.185173 0.145432 -0.126643 0.142753 -0.181179 -0.081768 -0.055299 0.150340 0.181244 -0.048044 0.359013 0.142788 -0.280874 0.146956 -0.163639 -0.316316 -0.059005 -0.130582 -0.175092 -0.361684 -0.398134 0.225322 -0.049138 0.077054 -0.373267 -0.161202 0.234309 0.112190 0.309602 -0.306961 -0.102355 -0.090750 0.326957 -0.012388 0.069703 0.274432 -0.266919 0.188373 0.245124 -0.074880 0.175712 -0.439827 0.248928 0.349658
678 0.078867 -0.061565 -0.101492 0.003412 -0.078768 0.186880 0.568469 0.745202 0.293973 -0.235915 0.145594 0.459825 0.448469 -0.414485 -0.388686 0.551902 0.367356 0.010053 -0.080240 0.186657 -0.388264 0.043777 -0.583389 0.355341 0.693253 0.045540 0.832326 -0.011925 -0.570491 0.274736 -0.195275 -0.471601 -0.088944 -0.021917 -0.565129 -0.423999 -0.550796 0.539578 0.279374 -0.038083 -0.421099 -0.355413 0.468393 0.067145 0.404680 -0.451344 -0.342055 -0.346789 0.517277 -0.146934 -0.303157 0.352074 -0.320000 0.116219 0.255539 -0.260050 0.371745 -0.617326 0.258605 0.408614
265 0.087406 0.054924 0.059491 0.041694 -0.049315 0.194083 0.340692 0.570018 0.281375 -0.166148 0.088967 0.318989 0.208817 -0.252636 -0.297685 0.452143 0.227182 0.010944 -0.113256 0.134359 -0.248128 -0.042171 -0.373461 0.282971 0.385577 -0.007084 0.597728 0.062131 -0.412215 0.152219 -0.155045 -0.367281 0.005428 -0.056706 -0.346471 -0.374757 -0.467531 0.315827 0.080112 -0.025353 -0.373982 -0.297914 0.405879 0.093563 0.330605 -0.354514 -0.240590 -0.241044 0.344915 -0.152377 -0.080676 0.263086 -0.249929 0.063793 0.188753 -0.123511 0.221695 -0.499621 0.169353 0.348689
54 0.137060 -0.318941 0.316703 0.158664 -0.121875 0.172889 0.369356 0.399026 0.961365 -1.100674 -0.350265 0.121791 0.367879 0.232183 -1.041104 0.585124 0.104173 0.032282 0.376229 0.149547 -1.024955 -0.487013 -0.192957 0.722114 0.401905 -0.526728 0.302251 0.114016 -0.579750 0.128892 -0.504324 -0.307814 -0.050791 -0.698194 -0.416518 -0.796346 -1.307352 0.866099 0.147539 0.267543 -0.712259 -0.131145 0.544228 0.607306 0.449354 -0.597121 -0.648661 0.142214 1.008496 0.607559 0.166299 0.775320 -0.461477 0.544443 0.985792 -0.619444 0.709131 -0.786438 0.684961 0.763011
305 0.038221 0.031960 -0.003494 0.015874 0.010137 0.148606 0.245972 0.480612 0.260888 -0.277075 0.057931 0.268026 0.093345 -0.100307 -0.254962 0.316069 0.140042 0.192999 -0.087174 0.197079 -0.213731 -0.122376 -0.097355 0.101430 0.236899 -0.064059 0.371468 0.203392 -0.297057 0.107664 -0.133663 -0.320762 -0.034429 -0.205257 -0.169228 -0.445327 -0.355798 0.259354 -0.006577 0.058571 -0.400469 -0.143505 0.225295 0.059290 0.297390 -0.269935 -0.179479 -0.067819 0.372043 -0.000074 0.072546 0.298252 -0.245332 0.223672 0.250272 -0.090606 0.144740 -0.420871 0.218345 0.333897
229 0.051378 0.048509 0.034740 0.092501 0.039159 0.139134 0.190180 0.427488 0.271862 -0.304564 0.068808 0.258522 0.052910 -0.077931 -0.257775 0.339829 0.168085 0.204379 -0.128544 0.187330 -0.161739 -0.098850 -0.139584 0.158214 0.240335 -0.059120 0.392762 0.182013 -0.297728 0.139343 -0.125243 -0.307416 -0.063556 -0.177920 -0.179739 -0.391144 -0.385580 0.207969 0.013577 0.040608 -0.395701 -0.183907 0.181308 0.067823 0.257231 -0.318659 -0.120717 -0.090046 0.374632 0.009379 0.062737 0.261584 -0.250673 0.187324 0.208061 -0.097704 0.146848 -0.466826 0.235208 0.382710
2 0.037493 0.048247 0.017407 0.039350 0.025092 0.164567 0.257561 0.473570 0.244160 -0.290310 0.047763 0.310684 0.073667 -0.162712 -0.245784 0.321922 0.149390 0.186926 -0.120726 0.152784 -0.163914 -0.068215 -0.057016 0.126211 0.208437 -0.090496 0.341666 0.159358 -0.276841 0.117367 -0.099886 -0.324285 -0.077044 -0.144652 -0.196890 -0.378235 -0.400278 0.202567 0.023838 0.054275 -0.341868 -0.126025 0.233418 0.083706 0.293761 -0.291668 -0.138177 -0.130095 0.362002 -0.031974 0.034391 0.218535 -0.258733 0.207395 0.187374 -0.080145 0.202619 -0.402978 0.233488 0.420330
299 0.049776 0.015199 0.013206 0.047489 0.061681 0.113635 0.239447 0.450036 0.263080 -0.342424 0.058036 0.298404 0.092514 -0.158150 -0.252278 0.303174 0.210537 0.141329 -0.104696 0.166308 -0.211495 -0.072673 -0.155726 0.103976 0.278616 -0.044536 0.331341 0.119986 -0.287994 0.083222 -0.167505 -0.341960 -0.096066 -0.165312 -0.202100 -0.421208 -0.400420 0.274073 -0.006230 0.065158 -0.378934 -0.154467 0.193938 0.105695 0.293365 -0.272421 -0.174746 -0.111459 0.370020 -0.023274 0.044179 0.308063 -0.240899 0.215881 0.228406 -0.088997 0.186826 -0.430882 0.224885 0.370047
441 0.059701 0.014321 -0.042108 0.034417 0.006240 0.132645 0.295386 0.497582 0.260830 -0.247621 0.058744 0.313640 0.186840 -0.193295 -0.256252 0.380318 0.236841 0.105105 -0.106764 0.142800 -0.225679 -0.033455 -0.245793 0.177802 0.364572 -0.020935 0.444690 0.096418 -0.375366 0.134029 -0.124040 -0.334946 -0.085644 -0.121737 -0.277687 -0.383011 -0.382231 0.308811 0.076360 0.008401 -0.336009 -0.163637 0.238860 0.075264 0.288986 -0.330549 -0.184977 -0.181720 0.355188 -0.060686 -0.063538 0.267986 -0.256336 0.155454 0.213769 -0.136325 0.204831 -0.461464 0.229702 0.336062
10 0.085276 0.174885 0.072471 0.180183 -0.047052 0.700001 0.820447 0.838682 0.399965 0.034436 0.269887 0.553216 0.380746 -0.513386 -0.482050 0.651761 0.248168 -0.019511 -0.126620 -0.045658 -0.402773 0.255792 -0.479938 0.518114 0.538043 0.045559 1.005734 -0.160920 -0.694012 0.406034 -0.098609 -0.437376 0.312874 0.060222 -0.523101 -0.280899 -0.854125 0.405954 0.130692 -0.053903 -0.354726 -0.495172 0.900261 -0.043971 0.693471 -0.511187 -0.067628 -0.569418 0.478795 -0.305011 -0.537311 0.203996 -0.455517 -0.101471 0.132457 -0.108852 0.410024 -0.597647 0.206368 0.670875
1140 0.206030 0.105267 0.219866 0.140834 -0.033504 0.180669 0.218487 0.585858 0.437422 -0.177687 0.051939 0.303538 0.159765 -0.167160 -0.236227 0.522703 0.331908 -0.078600 -0.153654 0.114161 -0.220581 -0.223508 -0.496645 0.297849 0.267901 0.069139 0.699151 0.072369 -0.487090 0.104546 -0.139131 -0.398939 -0.049264 -0.043378 -0.373795 -0.436035 -0.472600 0.338226 -0.069840 -0.054366 -0.550296 -0.258014 0.459857 0.166654 0.250244 -0.489523 -0.307507 -0.345049 0.404935 -0.271573 -0.025616 0.401566 -0.109970 0.120284 0.178486 -0.078672 0.246780 -0.594297 0.135956 0.287064
736 0.059248 0.244551 0.192905 0.255055 -0.084079 0.890136 0.974434 1.017889 0.476829 0.080748 0.324859 0.662408 0.438154 -0.621940 -0.618348 0.804931 0.307671 -0.003583 -0.196255 -0.108282 -0.437563 0.325296 -0.505430 0.634513 0.593574 -0.022897 1.224606 -0.157677 -0.848071 0.520258 -0.036387 -0.511162 0.414910 -0.022604 -0.649824 -0.360639 -1.105281 0.482753 0.156341 -0.003561 -0.443538 -0.581550 1.106686 -0.056641 0.869003 -0.635086 -0.045617 -0.701543 0.588775 -0.374473 -0.716265 0.193564 -0.567790 -0.175449 0.130527 -0.145186 0.473186 -0.737173 0.310652 0.873929
1106 0.099259 -0.278023 -0.228774 -0.307876 -0.124419 -0.126406 0.429687 0.709265 0.057296 -0.425484 0.037013 0.366787 0.549133 -0.442742 -0.398425 0.505932 0.348856 -0.031319 -0.182747 0.434156 -0.460547 -0.020806 -0.541093 0.270336 0.929456 -0.149084 0.558934 0.224789 -0.335567 0.055659 -0.359471 -0.659684 -0.308130 -0.043490 -0.668014 -0.692048 -0.391564 0.512635 0.436440 0.007861 -0.414040 -0.382486 0.193984 0.110361 0.334189 -0.200646 -0.625712 -0.001350 0.387002 -0.139325 0.072362 0.494599 -0.356638 0.119324 0.434367 -0.205524 0.321597 -0.590038 0.333203 0.258854
954 0.066721 0.005135 -0.009576 -0.012523 0.016881 0.091152 0.346437 0.666987 0.295240 -0.397458 0.200208 0.380730 0.211346 -0.205922 -0.346124 0.412988 0.166769 0.222600 -0.111213 0.363057 -0.318237 -0.132895 -0.201701 0.174042 0.453547 -0.156154 0.426689 0.158424 -0.399441 0.181819 -0.261749 -0.491076 -0.092978 -0.155873 -0.370960 -0.589868 -0.512364 0.372991 0.054977 0.022804 -0.399436 -0.197845 0.198500 0.052039 0.420873 -0.373783 -0.232023 -0.109264 0.452444 -0.003200 0.116179 0.415126 -0.377448 0.245521 0.329328 -0.066785 0.193250 -0.609953 0.241802 0.437825
1013 -0.002894 0.055075 0.043219 0.086035 0.019912 0.164194 0.184760 0.411175 0.242501 -0.219624 0.040049 0.241717 0.040152 -0.111778 -0.196778 0.321038 0.152805 0.123506 -0.117293 0.099141 -0.101579 -0.060677 -0.099416 0.114997 0.179751 -0.073676 0.327077 0.095693 -0.269561 0.110869 -0.063244 -0.273296 -0.030502 -0.158021 -0.134139 -0.293235 -0.375155 0.170323 -0.017290 0.030120 -0.295281 -0.152643 0.238846 0.070382 0.252028 -0.272409 -0.061525 -0.150677 0.302244 -0.028813 -0.005614 0.165439 -0.182889 0.125134 0.141999 -0.095098 0.139447 -0.333306 0.205137 0.313667
109 -0.008214 0.038368 0.027823 0.065378 0.043304 0.145410 0.231059 0.385247 0.212935 -0.199890 0.068073 0.245810 0.063555 -0.134999 -0.224877 0.303836 0.135135 0.125675 -0.110953 0.126094 -0.164500 -0.030172 -0.059870 0.143882 0.190137 -0.059756 0.334386 0.079793 -0.280014 0.118180 -0.087152 -0.252776 -0.015117 -0.134807 -0.151551 -0.319740 -0.368938 0.172595 0.036154 0.049889 -0.293219 -0.139094 0.241117 0.058961 0.267849 -0.248610 -0.075915 -0.146277 0.310973 -0.015987 0.004139 0.198291 -0.246933 0.125893 0.181424 -0.078225 0.140718 -0.337438 0.213600 0.338458
852 -0.005418 0.059353 0.077647 0.039023 -0.015894 0.114706 0.184306 0.412228 0.200484 -0.233962 0.045183 0.216729 0.034077 -0.120066 -0.226243 0.329864 0.156958 0.090940 -0.100941 0.112692 -0.085941 -0.107337 -0.099816 0.127439 0.192783 -0.086244 0.330944 0.120100 -0.266599 0.063680 -0.061191 -0.297921 -0.070704 -0.152716 -0.186470 -0.357492 -0.363981 0.219507 0.019530 0.046874 -0.326917 -0.140528 0.204043 0.127250 0.241239 -0.262695 -0.142517 -0.144229 0.290489 -0.080244 0.010225 0.205256 -0.175841 0.111254 0.169989 -0.070704 0.158216 -0.394114 0.208374 0.336389
91 0.060434 0.184827 0.135138 0.192332 -0.012383 0.769223 0.838819 0.755289 0.462149 0.126930 0.320386 0.521278 0.424542 -0.480434 -0.475739 0.542488 0.223539 0.022145 -0.172261 -0.144804 -0.439146 0.345177 -0.393097 0.477059 0.491198 0.032925 0.963167 -0.168675 -0.685181 0.486225 -0.036432 -0.380520 0.393698 0.004453 -0.529774 -0.239358 -0.837901 0.412696 0.112964 0.048457 -0.367885 -0.397075 0.885212 -0.092502 0.673391 -0.523017 -0.052799 -0.534411 0.487030 -0.241756 -0.621815 0.177134 -0.516654 -0.099343 0.090012 -0.091159 0.384075 -0.575921 0.216404 0.697278
624 0.050204 -0.101649 -0.129041 -0.032148 -0.088847 0.097311 0.465366 0.685685 0.299491 -0.266181 0.105346 0.428722 0.401239 -0.372608 -0.327736 0.505429 0.363639 0.072585 -0.061765 0.205350 -0.389110 -0.029436 -0.518616 0.313246 0.647951 0.022437 0.732925 0.022048 -0.516609 0.245759 -0.194416 -0.420085 -0.174227 -0.043170 -0.506966 -0.415345 -0.473735 0.503543 0.283646 -0.048989 -0.424058 -0.255298 0.353367 0.074116 0.351780 -0.424990 -0.358692 -0.277198 0.522072 -0.094315 -0.239477 0.392853 -0.266745 0.203719 0.280672 -0.243658 0.337572 -0.598273 0.282445 0.357971
792 0.320317 0.201226 0.519689 0.399833 0.012239 0.124868 -0.006729 0.619840 0.808658 -0.420899 0.090574 0.378414 -0.053811 0.005817 -0.097131 0.671237 0.500796 0.037315 -0.196565 0.148040 -0.272494 -0.626764 -0.572264 0.311011 0.024588 0.129404 0.828850 0.231227 -0.533220 0.031652 -0.198215 -0.463994 -0.155951 -0.137032 -0.264484 -0.686436 -0.605660 0.326955 -0.408589 0.004562 -0.917719 -0.190813 0.571369 0.381812 0.205950 -0.746952 -0.446227 -0.538276 0.613746 -0.313091 0.189537 0.712837 0.046343 0.371472 0.301591 0.027001 0.343883 -0.769728 0.192608 0.326588
659 0.097387 -0.080151 -0.224570 -0.026785 -0.099028 0.297487 0.723749 0.771328 0.261782 -0.049967 0.205897 0.479167 0.631511 -0.521516 -0.381640 0.558333 0.356975 -0.046546 -0.035197 0.123730 -0.470472 0.229902 -0.680387 0.441115 0.842697 0.129284 0.942685 -0.160623 -0.675191 0.420051 -0.169461 -0.431713 -0.038763 0.079164 -0.655589 -0.302305 -0.519567 0.607888 0.407400 -0.107261 -0.315452 -0.371654 0.556872 -0.070562 0.423925 -0.471254 -0.327269 -0.394298 0.485605 -0.169694 -0.522279 0.287091 -0.373498 0.019720 0.198160 -0.303418 0.396155 -0.616150 0.224254 0.400916
1142 0.038604 0.165449 0.094969 0.144762 -0.083733 0.605476 0.706003 0.736606 0.303806 0.071179 0.238264 0.454556 0.340896 -0.483254 -0.434886 0.574531 0.200369 -0.025094 -0.108095 -0.056643 -0.332240 0.239919 -0.419287 0.469133 0.487637 0.013757 0.897151 -0.148490 -0.595297 0.366777 -0.053816 -0.365310 0.278383 0.049743 -0.475495 -0.221152 -0.773633 0.348562 0.162304 -0.029579 -0.279596 -0.452321 0.793444 -0.042358 0.614227 -0.438192 -0.075435 -0.502183 0.391987 -0.291354 -0.501061 0.136349 -0.395318 -0.137022 0.076813 -0.118224 0.336773 -0.506162 0.183029 0.588200
994 0.078764 0.026418 -0.013835 0.031241 0.025625 0.142129 0.253476 0.429072 0.240562 -0.231513 0.058076 0.245017 0.134831 -0.138786 -0.240678 0.323986 0.184868 0.074341 -0.102832 0.149421 -0.206543 -0.032967 -0.180032 0.141776 0.282418 -0.044235 0.350602 0.094739 -0.320306 0.098279 -0.131502 -0.307464 -0.046433 -0.101076 -0.213568 -0.342794 -0.315800 0.255834 0.034758 0.018724 -0.313353 -0.160596 0.225762 0.055275 0.222578 -0.279505 -0.159090 -0.120870 0.313953 -0.050085 -0.000866 0.234793 -0.239879 0.155525 0.212340 -0.083022 0.171777 -0.398714 0.180965 0.291408
957 0.090747 0.018066 0.032637 -0.013570 0.031677 0.101002 0.122420 0.549198 0.257531 -0.412018 -0.071398 0.318523 0.057695 -0.090091 -0.221927 0.380121 0.315856 0.162757 -0.211562 0.290190 -0.161708 -0.196218 -0.071766 0.120555 0.252310 -0.130722 0.336312 0.267508 -0.327988 0.084199 -0.122090 -0.423057 -0.178344 -0.233798 -0.254094 -0.553923 -0.388278 0.358852 0.000945 0.042522 -0.459429 -0.145232 0.081847 0.209160 0.263971 -0.326707 -0.211857 -0.055131 0.428411 -0.039052 0.107500 0.334711 -0.285628 0.166857 0.273799 -0.144990 0.137107 -0.599639 0.288368 0.398351
83 0.024349 0.011050 0.029185 0.035525 0.036340 0.113960 0.154965 0.405587 0.244594 -0.291045 0.023559 0.264930 0.041324 -0.104707 -0.217972 0.330009 0.186279 0.119895 -0.118350 0.170573 -0.141879 -0.118419 -0.113624 0.100995 0.253036 -0.097357 0.304232 0.171066 -0.292887 0.057916 -0.109514 -0.307914 -0.114734 -0.191565 -0.190181 -0.416547 -0.341509 0.230471 0.005464 0.044396 -0.349708 -0.123517 0.141101 0.118465 0.231707 -0.281525 -0.140201 -0.096712 0.336162 -0.010192 0.064354 0.242516 -0.243404 0.164734 0.202612 -0.094465 0.150828 -0.439187 0.228378 0.316100
480 0.141310 0.051747 -0.346972 -0.046103 -0.066668 -0.231453 0.266557 0.545813 0.469511 -0.731834 -0.199974 0.246936 0.171085 0.014006 -0.508412 0.411924 0.281098 0.273616 -0.201334 0.530791 -0.295579 -0.000917 -0.073733 0.121446 0.623307 -0.179649 0.435582 0.243646 -0.664097 0.058983 -0.385246 -0.374669 -0.526195 -0.523821 -0.374875 -0.973402 -0.491616 0.450062 -0.012898 0.273309 -0.762181 -0.272991 0.024747 0.077226 0.232949 -0.278751 -0.201672 0.034738 0.490817 -0.053890 0.372724 0.297806 -0.445787 0.297585 0.230083 -0.272872 0.224433 -0.895849 0.698719 0.394694
0 0.048883 0.029797 0.042589 -0.011378 0.003895 0.116994 0.148392 0.472263 0.233129 -0.312450 -0.011578 0.262173 0.069106 -0.103793 -0.203729 0.338941 0.224888 0.148149 -0.165177 0.218601 -0.147745 -0.133986 -0.067515 0.125178 0.226626 -0.113939 0.325099 0.195473 -0.294428 0.080936 -0.101969 -0.332567 -0.120939 -0.208875 -0.202933 -0.467750 -0.358372 0.280452 0.024933 0.044810 -0.396762 -0.157978 0.126498 0.162457 0.266079 -0.268281 -0.179959 -0.069600 0.341170 -0.037365 0.078291 0.263902 -0.260045 0.123718 0.205933 -0.126412 0.117113 -0.492217 0.238163 0.371232
147 0.040426 0.093753 0.067342 0.095482 -0.035653 0.239506 0.322009 0.466936 0.236785 -0.087009 0.085060 0.266770 0.114541 -0.224042 -0.243593 0.325886 0.151093 0.035989 -0.099574 0.056395 -0.181462 0.011060 -0.182812 0.210727 0.246768 -0.020410 0.447100 0.037344 -0.339707 0.139129 -0.072866 -0.263660 0.066081 -0.057262 -0.245152 -0.241838 -0.438409 0.236371 0.027739 0.000324 -0.257637 -0.202455 0.338785 0.042222 0.321781 -0.285247 -0.085866 -0.231767 0.292439 -0.123694 -0.140156 0.142442 -0.228364 0.046206 0.130409 -0.066957 0.203208 -0.375759 0.168812 0.338682
799 0.155596 -0.184913 -0.145370 -0.179170 0.043975 -0.150056 0.326959 0.643400 0.208126 -0.604974 0.074975 0.356340 0.317408 -0.354926 -0.361484 0.372022 0.399478 0.080667 -0.092399 0.440268 -0.361953 -0.075452 -0.471043 0.029189 0.668555 0.010512 0.421379 0.163022 -0.393560 0.063582 -0.431431 -0.659733 -0.346217 -0.104203 -0.528877 -0.647995 -0.417836 0.612877 0.127276 0.024387 -0.539472 -0.192711 0.113291 0.142383 0.322547 -0.354166 -0.433553 0.052325 0.546623 -0.110579 0.084558 0.465363 -0.326769 0.266215 0.383962 -0.188540 0.294282 -0.712621 0.217771 0.376884
580 -0.128007 0.234594 0.203157 0.155149 0.043823 0.177929 0.249018 0.458619 0.331125 -0.302218 0.174617 0.280721 -0.125169 -0.154215 -0.199727 0.362755 -0.010269 0.373913 -0.124308 0.131140 -0.079105 -0.115791 0.071950 0.132939 0.064677 -0.114275 0.380505 0.240869 -0.226578 0.127647 -0.140038 -0.200199 0.051295 -0.266063 -0.017383 -0.374721 -0.546174 0.007919 -0.047932 0.186117 -0.371379 -0.256944 0.341621 0.126162 0.428172 -0.255730 -0.039740 -0.155671 0.350905 -0.014946 0.126375 0.233924 -0.215491 0.235181 0.117620 -0.051073 0.128806 -0.370428 0.247042 0.500570
764 0.039066 -0.005817 0.016990 -0.020820 -0.096122 0.180869 0.429433 0.650175 0.197392 -0.151984 0.072240 0.357148 0.287657 -0.371753 -0.375628 0.498302 0.252465 -0.040610 -0.126546 0.173428 -0.278964 -0.002009 -0.456135 0.346000 0.522592 -0.046276 0.667794 0.031348 -0.418980 0.147932 -0.166094 -0.437047 -0.017016 -0.008533 -0.434719 -0.377482 -0.531789 0.370418 0.182894 -0.030641 -0.323832 -0.365983 0.437779 0.095085 0.371277 -0.315083 -0.308843 -0.262405 0.370764 -0.184652 -0.158341 0.254664 -0.262755 0.022293 0.197437 -0.162729 0.278728 -0.483808 0.197576 0.354024
862 -0.006376 0.051986 0.058973 0.039642 -0.003477 0.117702 0.180498 0.382696 0.182713 -0.211872 0.028295 0.209401 0.036683 -0.126923 -0.191941 0.283241 0.143831 0.112363 -0.125661 0.138697 -0.095704 -0.087123 -0.055302 0.119007 0.188594 -0.084964 0.316432 0.139822 -0.239205 0.075317 -0.088180 -0.242559 -0.056814 -0.164731 -0.153495 -0.327592 -0.348677 0.186793 0.032290 0.054095 -0.301616 -0.129076 0.175778 0.083934 0.236562 -0.250538 -0.108646 -0.112474 0.270386 -0.037808 0.032418 0.169166 -0.190010 0.100384 0.159314 -0.071828 0.139516 -0.379247 0.196231 0.303126
1210 0.072582 -0.342475 -0.178734 -0.248498 0.071285 0.248608 0.163567 1.102309 0.709388 -0.640973 0.143563 0.567013 0.116056 0.077146 -0.769642 0.479820 0.349710 0.419714 -0.283853 0.782499 -0.095751 0.254977 -0.081009 0.273117 0.586608 -0.433735 0.451051 0.429634 -0.560691 0.088532 -0.058836 -0.578358 -0.499021 -0.707418 -0.444362 -1.397493 -0.389833 0.564063 -0.190092 0.031815 -0.725713 -0.261339 -0.090107 0.177612 0.151401 -0.261982 -0.177961 0.167780 0.398768 0.153484 0.186003 0.742712 0.016961 0.823487 0.436583 -0.506922 0.716894 -0.710375 0.527320 0.436618
809 0.116019 0.055928 0.023098 0.035935 -0.039361 0.264238 0.418763 0.606378 0.270852 -0.112774 0.111968 0.326638 0.265586 -0.293691 -0.355961 0.446827 0.249404 -0.029948 -0.134262 0.105117 -0.264137 0.025987 -0.375074 0.274251 0.420191 0.006442 0.606743 0.015327 -0.471451 0.194355 -0.153037 -0.378309 0.045234 -0.039476 -0.384461 -0.358331 -0.500506 0.330601 0.078305 -0.071220 -0.346842 -0.315697 0.452225 0.011702 0.342528 -0.387904 -0.183955 -0.255457 0.329238 -0.185032 -0.142911 0.229602 -0.296080 0.047167 0.156802 -0.123103 0.237286 -0.500416 0.156531 0.370774
363 0.050415 -0.015064 0.020976 -0.043447 -0.085748 0.141330 0.383109 0.622715 0.195740 -0.180220 0.064070 0.317279 0.305088 -0.337227 -0.353678 0.485742 0.246101 -0.020363 -0.118693 0.182203 -0.277169 -0.015112 -0.411556 0.313553 0.533043 -0.040822 0.638498 0.062780 -0.388753 0.145298 -0.148256 -0.426149 -0.049717 -0.047272 -0.434448 -0.410060 -0.484859 0.372617 0.200645 -0.015972 -0.336190 -0.315848 0.363774 0.106505 0.334799 -0.299487 -0.311342 -0.215088 0.367951 -0.157814 -0.126778 0.273084 -0.257773 0.040657 0.202780 -0.185058 0.254941 -0.484847 0.227972 0.350800
966 0.092549 -0.134306 0.255914 0.133155 -0.100312 0.154960 0.273020 0.322033 0.580487 -0.579162 -0.138931 0.111394 0.211006 0.060670 -0.641845 0.418120 0.112374 -0.000807 0.204012 0.082603 -0.596906 -0.302910 -0.221011 0.488791 0.249755 -0.270463 0.332682 0.033544 -0.387692 0.121288 -0.278807 -0.211275 0.009364 -0.357373 -0.307664 -0.448349 -0.861941 0.516268 0.054326 0.142406 -0.453046 -0.157178 0.451090 0.369840 0.314716 -0.406987 -0.369334 -0.035222 0.616305 0.260801 0.029391 0.445672 -0.234934 0.281471 0.525632 -0.365146 0.463797 -0.496731 0.383929 0.469372
50 0.145994 -0.195230 -0.384068 -0.056956 -0.145216 0.207607 0.762235 0.885387 0.295047 -0.138254 0.167115 0.536310 0.787027 -0.552643 -0.421631 0.646610 0.518009 -0.022135 -0.040738 0.205629 -0.559312 0.201111 -0.802118 0.450831 1.034425 0.150069 1.017058 -0.115356 -0.799037 0.436582 -0.202660 -0.538596 -0.213240 0.051726 -0.760916 -0.390262 -0.496760 0.785029 0.514416 -0.135748 -0.411072 -0.314945 0.469853 -0.085964 0.415229 -0.552762 -0.424176 -0.437880 0.575392 -0.167730 -0.567399 0.382096 -0.417839 0.082318 0.273012 -0.403408 0.438731 -0.750658 0.305445 0.377567
113 0.086858 0.011718 -0.045122 -0.007856 -0.054317 0.319263 0.516952 0.602078 0.176766 -0.082212 0.095105 0.330942 0.326927 -0.353912 -0.335792 0.423824 0.196548 -0.047987 -0.092962 0.069121 -0.307923 0.126996 -0.400512 0.329672 0.489439 0.008371 0.599879 -0.040712 -0.448840 0.229483 -0.142184 -0.379415 0.068135 0.029504 -0.411647 -0.266657 -0.496054 0.339098 0.188370 -0.054627 -0.230156 -0.332391 0.459916 -0.025150 0.372753 -0.283413 -0.216588 -0.256299 0.284506 -0.170155 -0.223501 0.202874 -0.347694 -0.016330 0.181370 -0.112280 0.230857 -0.425841 0.171752 0.371021
31 0.028240 0.034199 0.054935 0.055866 -0.006360 0.089926 0.153769 0.363312 0.203090 -0.232066 0.035007 0.233629 0.046566 -0.115396 -0.210911 0.278100 0.150915 0.093947 -0.095593 0.130310 -0.103164 -0.099243 -0.111681 0.125598 0.186792 -0.079673 0.310539 0.148275 -0.246527 0.059595 -0.079771 -0.252399 -0.071980 -0.143463 -0.153186 -0.325957 -0.318681 0.197174 0.013803 0.028053 -0.304634 -0.114577 0.163768 0.088679 0.214802 -0.237743 -0.124740 -0.120654 0.286617 -0.034660 0.011497 0.198055 -0.171460 0.119415 0.165497 -0.097252 0.148117 -0.369331 0.191686 0.278369
35 0.116067 0.157665 0.092525 0.495047 -0.132794 0.040321 0.122129 0.645854 0.362502 -0.483589 -0.014290 0.423935 -0.304668 -0.167693 -0.576078 0.493475 0.554157 0.057227 -0.190495 0.255675 -0.189565 -0.566443 -0.571685 0.272124 0.054688 -0.153641 0.664073 0.391500 -0.638212 -0.088446 -0.095968 -0.416611 0.062783 -0.248202 -0.188209 -0.332473 -0.551184 0.355518 -0.249755 -0.110592 -0.390226 -0.202200 0.234718 0.058053 0.086285 -0.496597 0.015728 -0.444447 0.721076 -0.100634 -0.259709 0.255925 -0.040120 0.399268 0.471274 -0.277342 0.472276 -0.322208 0.200700 0.227277
1243 0.046107 0.015645 0.005610 0.052441 0.009383 0.118587 0.230746 0.446741 0.246120 -0.292429 0.040994 0.281005 0.091864 -0.135422 -0.232277 0.333700 0.220106 0.118982 -0.113561 0.150094 -0.172036 -0.092204 -0.177768 0.140373 0.278792 -0.058410 0.358730 0.127549 -0.313330 0.092405 -0.118218 -0.332261 -0.088508 -0.155038 -0.218968 -0.394347 -0.376851 0.259661 0.030620 0.041614 -0.352462 -0.150785 0.194311 0.106699 0.262024 -0.307536 -0.157713 -0.140550 0.352851 -0.047416 -0.008238 0.257292 -0.232073 0.161423 0.220593 -0.106715 0.194024 -0.431437 0.225668 0.330338
854 0.249452 0.153628 0.403230 0.378491 0.013794 0.101395 0.003167 0.507305 0.649072 -0.382894 0.068905 0.318684 -0.108744 0.001612 -0.135456 0.525683 0.454727 0.038490 -0.155510 0.134386 -0.239711 -0.543526 -0.502847 0.256531 -0.006716 0.083745 0.682150 0.214063 -0.480157 0.003278 -0.151977 -0.377846 -0.100291 -0.137760 -0.203051 -0.531052 -0.507196 0.285241 -0.348060 -0.024275 -0.709540 -0.146614 0.437868 0.281463 0.126419 -0.622172 -0.315538 -0.445667 0.557599 -0.229640 0.111807 0.565893 0.052601 0.345221 0.291776 -0.002936 0.331086 -0.591821 0.161305 0.259199
370 0.052542 0.051242 0.065908 -0.001912 -0.005334 0.080738 0.168302 0.515022 0.262135 -0.277760 0.012995 0.261165 0.100308 -0.138894 -0.310861 0.418228 0.221509 0.118844 -0.144521 0.208627 -0.109446 -0.127698 -0.124503 0.150730 0.294476 -0.126494 0.428458 0.199113 -0.325912 0.047702 -0.091376 -0.358518 -0.113569 -0.251404 -0.229175 -0.468407 -0.379400 0.289815 0.038434 0.058567 -0.426912 -0.176656 0.150338 0.126124 0.282681 -0.314703 -0.198945 -0.111566 0.352888 -0.083072 0.076814 0.236948 -0.241102 0.133851 0.200962 -0.138090 0.155750 -0.509660 0.249161 0.345192
1138 0.065606 -0.063888 0.000112 -0.021900 0.022488 0.011090 0.310423 0.530792 0.258348 -0.446446 0.077314 0.333785 0.172212 -0.290281 -0.305746 0.362847 0.280327 0.104300 -0.084263 0.282415 -0.297520 -0.090429 -0.338901 0.113243 0.438798 -0.023612 0.440890 0.126515 -0.355233 0.081592 -0.292500 -0.469796 -0.160423 -0.132578 -0.370595 -0.487685 -0.485247 0.419355 0.058209 0.050540 -0.449363 -0.191087 0.246638 0.144750 0.339753 -0.335428 -0.279682 -0.085779 0.474502 -0.074388 0.028852 0.377436 -0.250044 0.239334 0.284401 -0.119614 0.280347 -0.556691 0.219460 0.401485
863 0.022719 0.058009 0.039780 0.059642 0.006522 0.119383 0.189452 0.357225 0.212724 -0.215674 0.045328 0.215494 0.057640 -0.126161 -0.187799 0.275490 0.147245 0.105853 -0.095845 0.114520 -0.128920 -0.062554 -0.096107 0.132489 0.176802 -0.050747 0.317985 0.113058 -0.254327 0.081236 -0.082748 -0.246029 -0.037507 -0.129216 -0.149644 -0.293926 -0.327076 0.178859 0.019779 0.043263 -0.273463 -0.140652 0.200846 0.084176 0.241885 -0.239799 -0.107638 -0.108335 0.277605 -0.035336 0.007064 0.179236 -0.187914 0.111253 0.154500 -0.064398 0.154641 -0.340766 0.176501 0.293026
567 0.024534 0.020698 0.014905 0.062205 0.015873 0.130189 0.196221 0.368483 0.234197 -0.238359 0.049346 0.243794 0.065469 -0.123991 -0.194482 0.274440 0.138829 0.094062 -0.102159 0.115801 -0.145077 -0.052209 -0.110933 0.126784 0.198079 -0.063201 0.298124 0.118136 -0.255529 0.076535 -0.089091 -0.255191 -0.030128 -0.124139 -0.144706 -0.299824 -0.311471 0.199567 -0.011973 0.038390 -0.286658 -0.116888 0.190234 0.047945 0.223623 -0.227702 -0.113848 -0.098154 0.280366 -0.010865 0.013222 0.201862 -0.209325 0.134010 0.178438 -0.074138 0.170350 -0.346109 0.176385 0.289122
1141 -0.001641 0.046376 0.048935 0.041008 0.005000 0.112657 0.165350 0.378555 0.199143 -0.220682 0.034725 0.211377 0.030597 -0.119198 -0.208593 0.272095 0.142116 0.109484 -0.093190 0.122591 -0.105249 -0.067020 -0.075670 0.119493 0.177348 -0.088134 0.294717 0.136937 -0.244539 0.082011 -0.064499 -0.250932 -0.061845 -0.157627 -0.150117 -0.311888 -0.324936 0.173009 0.035419 0.039421 -0.270817 -0.122240 0.167744 0.100884 0.236983 -0.227630 -0.093838 -0.108437 0.274700 -0.030805 0.007199 0.157742 -0.201111 0.096308 0.159650 -0.083392 0.144162 -0.340366 0.193689 0.315475
543 0.017978 0.023453 0.053022 0.025265 0.012231 0.101607 0.142001 0.365520 0.214735 -0.243107 0.019423 0.219983 0.033261 -0.098183 -0.200497 0.304564 0.156311 0.117876 -0.102081 0.155257 -0.119778 -0.094556 -0.093091 0.117924 0.218816 -0.096036 0.281933 0.159366 -0.256126 0.055365 -0.085071 -0.268636 -0.083625 -0.182313 -0.169707 -0.373693 -0.312935 0.188356 0.019012 0.050689 -0.305640 -0.123097 0.147903 0.114207 0.217171 -0.244963 -0.130069 -0.093633 0.292611 -0.026637 0.040297 0.214858 -0.186664 0.129761 0.163563 -0.089019 0.129815 -0.394882 0.201240 0.288035
1079 0.047279 0.029309 -0.009970 0.039186 0.034512 0.167005 0.236206 0.321335 0.242442 -0.212178 0.067764 0.237029 0.076521 -0.094690 -0.166990 0.240169 0.108702 0.105931 -0.077532 0.087370 -0.174188 -0.028485 -0.111699 0.099185 0.168070 -0.035945 0.263992 0.080364 -0.254536 0.099780 -0.128243 -0.220087 -0.004381 -0.085395 -0.131328 -0.274191 -0.281511 0.178944 -0.032828 0.023456 -0.236684 -0.114795 0.178291 0.040798 0.215816 -0.233998 -0.077112 -0.076886 0.255814 0.007395 -0.010753 0.198099 -0.209163 0.174808 0.177168 -0.039761 0.154475 -0.277673 0.147890 0.266143
729 0.104440 0.146632 0.093768 0.042538 -0.148368 0.524733 0.823704 1.036345 0.306604 0.045254 0.203722 0.529590 0.496119 -0.636400 -0.591752 0.777411 0.289463 -0.170060 -0.137034 0.102576 -0.386940 0.172467 -0.713069 0.589164 0.721159 0.048310 1.185228 -0.107491 -0.721284 0.372239 -0.158913 -0.580992 0.169641 0.095071 -0.666403 -0.370831 -0.902897 0.481220 0.269019 -0.112871 -0.390770 -0.653840 0.911270 0.021315 0.653586 -0.543208 -0.297695 -0.568799 0.455508 -0.439347 -0.426657 0.226703 -0.431879 -0.160245 0.106022 -0.238365 0.422128 -0.694146 0.185433 0.619270
440 -0.229785 -0.531696 0.336254 0.217258 0.014411 0.257499 0.307068 0.964100 0.327183 -0.856770 -0.207670 1.109460 -0.421619 -0.447952 -0.469211 0.722677 1.144569 -0.089186 -0.433339 0.120701 0.170210 -0.519397 0.192210 0.162316 0.065828 -0.353907 0.458854 -0.033979 -0.502681 -0.119619 0.343246 -1.035519 -0.611636 -0.311504 -0.353146 -0.716707 -1.118714 0.660835 0.007381 -0.160011 -0.865770 0.179756 0.552380 0.762517 0.852642 -0.847389 0.104880 -0.844047 1.121977 -0.122929 -0.333358 0.182211 -0.311074 0.077259 0.409271 0.254254 0.609259 -0.927190 1.055594 1.212617
458 0.042441 -0.151163 -0.051184 -0.033268 0.046454 0.205248 0.187308 0.652730 0.451279 -0.384753 0.100104 0.375697 0.054401 -0.054236 -0.456127 0.324035 0.251192 0.218766 -0.148913 0.390787 -0.153184 0.086281 -0.131947 0.217900 0.334025 -0.208249 0.380877 0.189828 -0.377896 0.101865 -0.081934 -0.374146 -0.203888 -0.355556 -0.304335 -0.743928 -0.368896 0.329545 -0.104838 0.015862 -0.454635 -0.194512 0.132169 0.124153 0.172907 -0.238221 -0.102406 -0.021896 0.335797 0.067462 0.037131 0.446371 -0.024839 0.460469 0.291039 -0.234455 0.472518 -0.429063 0.297072 0.336095
469 0.262620 0.166280 0.351188 0.412190 -0.005025 0.073234 0.005836 0.500410 0.635803 -0.405383 0.046444 0.319425 -0.131079 -0.013240 -0.187440 0.502453 0.473466 0.031766 -0.164191 0.141728 -0.255258 -0.577450 -0.553380 0.262831 -0.007029 0.086015 0.674592 0.239799 -0.499333 -0.025005 -0.162541 -0.371697 -0.055529 -0.124443 -0.189886 -0.473429 -0.468827 0.283835 -0.372343 -0.048554 -0.656888 -0.153546 0.392963 0.233363 0.076954 -0.601530 -0.279730 -0.454435 0.568301 -0.198986 0.057046 0.542720 0.063772 0.394983 0.333839 -0.044303 0.357858 -0.509833 0.122832 0.196635
1080 0.014849 0.052138 0.049644 0.049715 -0.015944 0.091673 0.146115 0.343766 0.170628 -0.199416 0.024877 0.209215 0.019617 -0.119650 -0.201686 0.262514 0.143923 0.085427 -0.087017 0.115243 -0.069180 -0.085530 -0.096724 0.111051 0.167286 -0.085042 0.298034 0.134511 -0.212625 0.050371 -0.055126 -0.232809 -0.046549 -0.141396 -0.149868 -0.307039 -0.286268 0.162015 0.016206 0.038089 -0.274769 -0.124635 0.147279 0.091229 0.217172 -0.206134 -0.109696 -0.109338 0.268525 -0.052211 0.018565 0.145826 -0.149641 0.102142 0.128481 -0.096832 0.113330 -0.329586 0.189764 0.268113
356 0.294436 0.166431 0.457105 0.362693 0.022339 0.112729 -0.003007 0.530436 0.728444 -0.389139 0.076740 0.334265 -0.058683 0.006385 -0.073379 0.575306 0.448671 0.050262 -0.173650 0.124255 -0.248732 -0.559459 -0.529660 0.259143 0.021817 0.132873 0.725976 0.200050 -0.479959 0.018602 -0.183977 -0.396811 -0.122954 -0.117096 -0.232398 -0.575229 -0.522787 0.293361 -0.378751 -0.009902 -0.793881 -0.159532 0.486741 0.326379 0.155280 -0.654274 -0.378174 -0.469105 0.550857 -0.263446 0.164070 0.638381 0.040872 0.346842 0.281661 0.026514 0.310595 -0.661958 0.155803 0.266610
202 0.025977 0.080850 0.048390 0.067280 -0.039966 0.238152 0.317864 0.436117 0.177735 -0.045307 0.099462 0.233957 0.156803 -0.234480 -0.237110 0.328312 0.127221 0.018976 -0.065720 0.054372 -0.161150 0.046873 -0.215653 0.221146 0.255445 -0.011813 0.462172 0.015360 -0.298501 0.147168 -0.051296 -0.224112 0.066126 -0.039211 -0.227583 -0.212559 -0.405136 0.190916 0.073426 0.003771 -0.204756 -0.228763 0.352457 0.029273 0.288827 -0.234590 -0.086440 -0.228618 0.228465 -0.135905 -0.158207 0.122972 -0.181959 -0.021845 0.076434 -0.095364 0.181027 -0.321718 0.127628 0.308513
771 0.007552 0.058270 0.058837 0.025465 -0.022842 0.105095 0.133177 0.355141 0.154660 -0.186497 0.022308 0.184130 0.044218 -0.103855 -0.199840 0.293341 0.134935 0.064489 -0.086709 0.115967 -0.075471 -0.079741 -0.090283 0.135525 0.185951 -0.094180 0.314832 0.121288 -0.222996 0.063095 -0.050092 -0.233112 -0.051868 -0.148742 -0.177559 -0.287270 -0.317680 0.178746 0.036649 0.029119 -0.281369 -0.134592 0.165705 0.090599 0.201401 -0.215316 -0.118702 -0.090137 0.236867 -0.062687 0.008286 0.135146 -0.169342 0.051751 0.113710 -0.104330 0.097220 -0.343502 0.187475 0.268058
73 0.035886 0.043725 -0.038291 0.045407 0.005009 0.030153 0.250495 0.461896 0.330192 -0.401622 -0.056770 0.260470 0.108704 -0.112061 -0.335491 0.392230 0.212135 0.102286 -0.172185 0.239712 -0.222258 -0.067213 -0.165326 0.132182 0.345462 -0.096099 0.405449 0.135784 -0.420379 0.067341 -0.186681 -0.305465 -0.155608 -0.235247 -0.249592 -0.512190 -0.484611 0.271159 0.023642 0.100986 -0.466511 -0.196894 0.252896 0.089823 0.267947 -0.275108 -0.118840 -0.122892 0.414887 -0.077978 0.071131 0.241446 -0.249572 0.157393 0.188500 -0.149713 0.194430 -0.519537 0.375919 0.392020
690 0.016094 0.047199 0.021847 0.030689 0.024178 0.130697 0.194227 0.349335 0.221262 -0.228619 0.043041 0.219755 0.066753 -0.104607 -0.200626 0.257193 0.142814 0.112585 -0.097460 0.117678 -0.146645 -0.040825 -0.083309 0.104839 0.184057 -0.056026 0.284363 0.117305 -0.237129 0.093574 -0.095286 -0.237070 -0.045872 -0.124645 -0.149375 -0.306004 -0.322091 0.185080 0.020380 0.047977 -0.272222 -0.122079 0.170989 0.078747 0.241492 -0.236269 -0.102594 -0.098916 0.275086 -0.019527 0.019881 0.181667 -0.201054 0.114609 0.163851 -0.065936 0.148589 -0.330460 0.176504 0.291647
921 0.028522 0.020719 0.020435 0.053772 0.035923 0.125007 0.170107 0.307272 0.202608 -0.178010 0.041024 0.198858 0.045936 -0.097056 -0.159805 0.227307 0.123207 0.088147 -0.087890 0.105413 -0.128298 -0.057571 -0.090832 0.095393 0.160514 -0.035472 0.247759 0.081553 -0.208744 0.062596 -0.080357 -0.208952 -0.037704 -0.107549 -0.110004 -0.258401 -0.264626 0.167890 -0.017728 0.027587 -0.229056 -0.107792 0.164271 0.048971 0.197862 -0.211031 -0.081293 -0.094690 0.216247 -0.014937 0.000112 0.183421 -0.157794 0.124630 0.147729 -0.047893 0.132546 -0.274560 0.165744 0.235307
535 0.143828 0.171129 0.086584 0.545418 -0.106799 0.057706 0.161294 0.673607 0.417654 -0.530952 -0.007850 0.455173 -0.302674 -0.183002 -0.599659 0.508492 0.563507 0.066792 -0.186104 0.242327 -0.249729 -0.574925 -0.597161 0.278724 0.052946 -0.136839 0.695803 0.391762 -0.677720 -0.069179 -0.119057 -0.439980 0.103316 -0.239196 -0.187361 -0.341913 -0.588414 0.382056 -0.292738 -0.105701 -0.394392 -0.205666 0.257163 0.046340 0.092271 -0.524322 0.034973 -0.475563 0.775128 -0.069477 -0.288616 0.295536 -0.057549 0.453637 0.511596 -0.275648 0.504981 -0.318708 0.206895 0.250741
1001 0.028561 0.016401 0.060088 -0.040212 -0.102457 0.106517 0.288496 0.567539 0.151037 -0.140603 0.036928 0.259926 0.235297 -0.302945 -0.317334 0.454749 0.207984 -0.031634 -0.109966 0.167913 -0.206571 -0.051146 -0.368033 0.291877 0.429743 -0.069213 0.591033 0.061012 -0.347854 0.103358 -0.137982 -0.357261 -0.071793 -0.056112 -0.365692 -0.366511 -0.453695 0.310276 0.184785 -0.004888 -0.294735 -0.304738 0.346084 0.113181 0.316762 -0.267886 -0.297662 -0.203503 0.315234 -0.178417 -0.087026 0.215375 -0.196885 -0.002865 0.153922 -0.161850 0.218548 -0.434238 0.195347 0.306367
722 -0.330106 0.437464 0.441721 0.281561 0.033337 0.289829 0.333732 0.630414 0.477889 -0.384970 0.293784 0.429520 -0.317223 -0.260071 -0.271240 0.529476 -0.087276 0.576392 -0.176822 0.171719 -0.003309 -0.191482 0.222976 0.195719 -0.031558 -0.206834 0.586250 0.331632 -0.254119 0.207164 -0.161303 -0.235193 0.129997 -0.383670 0.077520 -0.507974 -0.930097 -0.113733 -0.109099 0.298720 -0.515459 -0.406086 0.580730 0.237696 0.751965 -0.329942 0.025105 -0.296741 0.497849 -0.045844 0.171936 0.251836 -0.265637 0.278966 0.090943 -0.036469 0.154270 -0.497449 0.374623 0.862026
635 0.135734 -0.058786 -0.223603 0.026889 0.205050 0.200065 0.339291 0.643311 0.465166 -0.464807 0.123636 0.448860 0.217421 -0.106455 -0.396120 0.459459 0.275295 0.240157 -0.122952 0.305227 -0.217957 0.057483 -0.036910 0.073509 0.398971 -0.184107 0.254421 0.174445 -0.417635 0.069177 -0.226907 -0.454184 -0.121417 -0.208407 -0.252714 -0.673864 -0.295344 0.308617 -0.052628 0.074232 -0.437116 -0.196962 0.175289 0.141657 0.240795 -0.330899 -0.254531 -0.055905 0.518259 0.016234 0.218570 0.452584 -0.530267 0.385741 0.502115 -0.054177 0.195830 -0.613710 0.438156 0.381298
958 0.017964 0.005630 -0.008100 0.034091 -0.012164 0.091434 0.212093 0.386156 0.236737 -0.225453 0.048997 0.257928 0.093537 -0.139950 -0.204643 0.298443 0.178858 0.118447 -0.090320 0.149268 -0.173597 -0.087786 -0.153925 0.132251 0.242474 -0.059093 0.346937 0.103105 -0.278967 0.098935 -0.110210 -0.255948 -0.084188 -0.121539 -0.185018 -0.320739 -0.330837 0.223492 0.051541 0.022370 -0.290217 -0.122274 0.186647 0.068919 0.243105 -0.240760 -0.136849 -0.126737 0.303893 -0.021207 -0.010328 0.240782 -0.180469 0.155579 0.178048 -0.092198 0.172154 -0.365702 0.202633 0.283459
467 0.037341 -0.017947 -0.045670 0.016036 -0.016514 0.122983 0.286274 0.469839 0.255618 -0.249175 0.055174 0.302699 0.184697 -0.180688 -0.226836 0.352609 0.217722 0.090578 -0.074022 0.151058 -0.234940 -0.052118 -0.250852 0.179385 0.363560 -0.025353 0.435753 0.071920 -0.354010 0.141450 -0.131209 -0.306313 -0.087660 -0.091022 -0.262348 -0.350426 -0.356486 0.299671 0.099930 0.015212 -0.323719 -0.158182 0.224645 0.070132 0.252372 -0.302321 -0.184579 -0.169741 0.366380 -0.051226 -0.077172 0.269413 -0.233142 0.178084 0.221936 -0.141239 0.222070 -0.428260 0.219824 0.299013
710 0.030941 0.036018 0.027101 0.027863 -0.003689 0.073075 0.151120 0.312825 0.177318 -0.183054 0.022824 0.177679 0.058476 -0.099233 -0.160093 0.241084 0.126949 0.073761 -0.077563 0.097915 -0.109069 -0.058829 -0.118358 0.106742 0.176323 -0.044107 0.262543 0.094592 -0.211935 0.068445 -0.084512 -0.217333 -0.050377 -0.099968 -0.134667 -0.272073 -0.247736 0.154866 0.012402 0.035550 -0.250700 -0.108581 0.152745 0.064161 0.180187 -0.186487 -0.118973 -0.081101 0.229165 -0.030305 0.027162 0.167819 -0.145672 0.116289 0.143752 -0.065892 0.107472 -0.289929 0.148410 0.215715
740 0.096900 -0.164678 -0.111959 -0.111014 0.074501 -0.130151 0.312988 0.594223 0.224603 -0.588425 0.103351 0.369626 0.271469 -0.367934 -0.336455 0.357546 0.339276 0.135111 -0.067657 0.422281 -0.380326 -0.049717 -0.446761 0.037846 0.589783 0.041598 0.427266 0.148876 -0.409616 0.055821 -0.440158 -0.603891 -0.323008 -0.100320 -0.488816 -0.620684 -0.478174 0.575606 0.069029 0.062397 -0.552447 -0.196273 0.147747 0.153691 0.324756 -0.351820 -0.387317 0.064712 0.547549 -0.084377 0.063498 0.470704 -0.316551 0.268993 0.343095 -0.170450 0.322096 -0.699429 0.215280 0.401991
684 0.190871 0.114149 0.286197 0.239679 0.010693 0.094906 0.036634 0.358634 0.487829 -0.250364 0.064794 0.248701 -0.039437 -0.011133 -0.064732 0.385889 0.300621 0.023590 -0.113931 0.078148 -0.187845 -0.362004 -0.359974 0.197572 0.018046 0.090249 0.498553 0.130517 -0.333521 0.021599 -0.127062 -0.273729 -0.064315 -0.074652 -0.151352 -0.380475 -0.362933 0.200221 -0.241841 -0.003998 -0.521168 -0.120228 0.354827 0.205151 0.118886 -0.445777 -0.245838 -0.335112 0.376488 -0.171362 0.077751 0.421018 0.020989 0.232324 0.186235 0.020494 0.228011 -0.435516 0.108104 0.206829
146 0.189996 0.114620 0.285267 0.260998 0.026581 0.095390 0.037749 0.343156 0.511306 -0.259780 0.070729 0.249310 -0.039474 0.003279 -0.054682 0.376511 0.292570 0.040075 -0.102880 0.066200 -0.223839 -0.364281 -0.367233 0.191946 0.009468 0.102844 0.494220 0.113991 -0.333117 0.036809 -0.138987 -0.258814 -0.050376 -0.062838 -0.136281 -0.372860 -0.372103 0.191445 -0.274537 -0.004499 -0.513321 -0.113816 0.361487 0.183289 0.111737 -0.450017 -0.245406 -0.327580 0.374243 -0.159668 0.087481 0.444013 0.015930 0.277129 0.199204 0.031149 0.248256 -0.421458 0.092283 0.189368
394 0.012929 0.039056 0.051197 0.066481 0.018828 0.086216 0.134261 0.266318 0.193830 -0.168466 0.032385 0.179462 0.015363 -0.090301 -0.134857 0.213172 0.109633 0.090055 -0.075166 0.078965 -0.105330 -0.064611 -0.082843 0.100096 0.130385 -0.039417 0.239762 0.093784 -0.190244 0.067017 -0.061872 -0.186810 -0.026804 -0.094242 -0.116386 -0.234100 -0.244792 0.130323 -0.023825 0.043867 -0.221586 -0.090449 0.163265 0.068519 0.175338 -0.191823 -0.069952 -0.099848 0.220416 -0.036048 0.007505 0.152807 -0.122754 0.109795 0.129017 -0.033064 0.129502 -0.251085 0.141594 0.207675
87 0.040578 -0.004422 -0.003116 0.030512 -0.008316 0.104555 0.210764 0.401846 0.225110 -0.229428 0.037524 0.252285 0.128933 -0.149021 -0.205803 0.310902 0.195865 0.069738 -0.083214 0.132607 -0.169025 -0.080090 -0.215602 0.142567 0.275062 -0.028342 0.352699 0.093410 -0.295590 0.083974 -0.104920 -0.293757 -0.080684 -0.104108 -0.218534 -0.324606 -0.312329 0.265496 0.043024 0.020477 -0.310037 -0.142377 0.183731 0.086981 0.226129 -0.265715 -0.171501 -0.143517 0.316720 -0.060416 -0.043712 0.224536 -0.201659 0.139835 0.183341 -0.106000 0.189361 -0.387390 0.192493 0.271948
1085 0.323937 0.105553 0.298586 0.144769 -0.007478 0.160303 0.150003 0.626384 0.548243 -0.139309 0.075751 0.304024 0.194253 -0.104401 -0.180824 0.552893 0.415287 -0.164553 -0.167570 0.103847 -0.246446 -0.282772 -0.668399 0.328097 0.261662 0.128955 0.774868 0.082035 -0.516618 0.086291 -0.142543 -0.442923 -0.121122 0.023262 -0.432982 -0.508853 -0.419754 0.389687 -0.208807 -0.115170 -0.647489 -0.270133 0.482736 0.208720 0.121671 -0.577800 -0.402796 -0.396176 0.375862 -0.372216 0.049359 0.530846 0.003162 0.185930 0.173722 -0.045339 0.299130 -0.657618 0.031581 0.173518
15 0.009522 0.023497 0.032890 0.027028 0.015159 0.109636 0.169355 0.294615 0.184425 -0.186183 0.050825 0.191434 0.052628 -0.098302 -0.157597 0.226737 0.114028 0.088737 -0.080167 0.091919 -0.114574 -0.045736 -0.100343 0.101813 0.161683 -0.041583 0.251533 0.089930 -0.203264 0.064340 -0.092597 -0.203323 -0.024128 -0.104583 -0.134794 -0.260442 -0.277794 0.160615 0.019336 0.039034 -0.243573 -0.111790 0.158019 0.062632 0.203945 -0.189717 -0.103489 -0.091620 0.231310 -0.034038 0.004011 0.174518 -0.158612 0.117688 0.131241 -0.067459 0.121600 -0.291828 0.150898 0.247170
865 0.058673 -0.016837 -0.005348 -0.009847 0.011693 0.072811 0.207771 0.385681 0.190230 -0.247946 0.049426 0.218248 0.111718 -0.146098 -0.205519 0.279859 0.174678 0.067434 -0.085749 0.155798 -0.176807 -0.052300 -0.182953 0.100153 0.265554 -0.038016 0.313749 0.096693 -0.252919 0.077277 -0.143932 -0.299512 -0.079470 -0.107763 -0.235269 -0.329234 -0.306491 0.269119 0.032251 0.030126 -0.304176 -0.123032 0.168011 0.078221 0.226046 -0.241550 -0.156744 -0.076328 0.295589 -0.053156 0.015489 0.224936 -0.193961 0.137085 0.184647 -0.087109 0.172270 -0.374825 0.168619 0.261161
887 0.006751 0.050124 0.038693 0.028311 0.012737 0.099679 0.133219 0.287470 0.176393 -0.168359 0.037557 0.171040 0.032024 -0.085216 -0.147474 0.220515 0.114073 0.094723 -0.082092 0.086603 -0.083553 -0.063166 -0.057720 0.085086 0.140983 -0.057088 0.239783 0.099276 -0.189154 0.065865 -0.066273 -0.190686 -0.025910 -0.107293 -0.121351 -0.261969 -0.254804 0.130070 -0.006384 0.032697 -0.227890 -0.109011 0.152619 0.077499 0.173208 -0.173856 -0.092329 -0.089561 0.204597 -0.030792 0.014956 0.150454 -0.148976 0.090627 0.111137 -0.049681 0.093402 -0.263947 0.144653 0.244922
529 0.038232 0.050893 0.038843 0.068371 -0.015917 0.196556 0.247453 0.351023 0.179602 -0.088089 0.089321 0.214892 0.101281 -0.160941 -0.197672 0.262458 0.128023 0.032503 -0.075010 0.048289 -0.144817 0.017548 -0.173273 0.158693 0.208186 -0.022249 0.363826 0.031650 -0.276085 0.120363 -0.070846 -0.208712 0.043842 -0.043149 -0.186542 -0.214232 -0.325131 0.178119 0.025771 0.006569 -0.213320 -0.180037 0.276374 0.032635 0.237167 -0.228768 -0.077571 -0.171161 0.235131 -0.079419 -0.106313 0.141709 -0.175418 0.036556 0.103065 -0.069169 0.152139 -0.280251 0.109945 0.268876
369 0.067577 0.097901 -0.039431 -0.070126 0.025558 0.106678 0.185966 0.550228 0.313307 -0.368103 0.009740 0.311044 0.181375 -0.107259 -0.361290 0.444069 0.236855 0.217708 -0.165269 0.308232 -0.129037 -0.115211 -0.084866 0.125703 0.397954 -0.148903 0.414352 0.246115 -0.357771 0.101739 -0.100199 -0.434939 -0.110192 -0.289696 -0.225419 -0.545999 -0.387979 0.341442 0.047990 0.089961 -0.463005 -0.209476 0.086874 0.122285 0.330354 -0.359077 -0.259017 -0.026925 0.349268 -0.021601 0.112343 0.310958 -0.342227 0.232806 0.275293 -0.187409 0.116046 -0.617759 0.299583 0.400451
573 0.058586 -0.100838 0.165285 0.094682 -0.067740 0.122120 0.209364 0.282617 0.412719 -0.414671 -0.103934 0.116788 0.151530 0.017683 -0.459596 0.321534 0.108390 -0.011466 0.120216 0.067127 -0.415573 -0.216039 -0.173495 0.349334 0.205870 -0.199614 0.282097 0.044548 -0.300771 0.083033 -0.201219 -0.190407 -0.003681 -0.262269 -0.235224 -0.343342 -0.629398 0.382074 0.046173 0.092715 -0.328042 -0.125342 0.319048 0.250269 0.243364 -0.307850 -0.258131 -0.054110 0.461593 0.165418 0.008225 0.316776 -0.188565 0.204805 0.388782 -0.255628 0.327255 -0.380592 0.278450 0.351741
872 0.233872 0.171337 0.359954 0.435235 -0.048660 0.049016 -0.024229 0.522337 0.600757 -0.425709 0.036411 0.321954 -0.196691 -0.023043 -0.243993 0.519769 0.492358 0.027860 -0.161833 0.158886 -0.208965 -0.619328 -0.553465 0.250288 -0.037381 0.030018 0.677601 0.280653 -0.509296 -0.041462 -0.136606 -0.369633 -0.058684 -0.157937 -0.176972 -0.459521 -0.490226 0.293201 -0.373364 -0.038756 -0.631023 -0.159639 0.368166 0.245771 0.070888 -0.593559 -0.233386 -0.457459 0.608594 -0.203667 0.031924 0.495982 0.085622 0.388717 0.341084 -0.083296 0.354517 -0.491620 0.142806 0.201704
1094 0.007961 0.048616 0.032718 0.057869 0.014979 0.124442 0.172752 0.297052 0.191222 -0.186162 0.046339 0.206458 0.030594 -0.109646 -0.165680 0.242933 0.108294 0.098849 -0.071967 0.090797 -0.106430 -0.043612 -0.078764 0.101003 0.146654 -0.047767 0.267935 0.099653 -0.220337 0.074570 -0.085557 -0.203382 -0.024667 -0.107571 -0.128533 -0.254446 -0.283290 0.164140 -0.002228 0.034373 -0.220729 -0.122171 0.152525 0.066017 0.189518 -0.177659 -0.068251 -0.080672 0.229179 -0.014088 -0.015441 0.155570 -0.161023 0.116406 0.149388 -0.056840 0.138458 -0.272968 0.146054 0.241740
226 0.041141 0.027703 0.025684 0.021662 0.027169 0.101731 0.153290 0.408146 0.218916 -0.278985 -0.009463 0.243136 0.054057 -0.102687 -0.173309 0.274736 0.196200 0.141002 -0.132618 0.178316 -0.147547 -0.113969 -0.058541 0.102802 0.194259 -0.073778 0.269191 0.153104 -0.250622 0.080242 -0.106884 -0.286200 -0.091978 -0.155570 -0.175924 -0.383725 -0.328451 0.230424 -0.004789 0.035855 -0.326075 -0.131057 0.137509 0.128696 0.242084 -0.245061 -0.146890 -0.066704 0.322748 -0.017381 0.058153 0.241253 -0.215866 0.138297 0.183125 -0.083744 0.128031 -0.412848 0.209392 0.328209
1020 0.067323 -0.009359 -0.045436 -0.020878 0.022249 0.089885 0.286741 0.442772 0.229410 -0.338804 0.069619 0.284332 0.178713 -0.182439 -0.245193 0.335207 0.194744 0.103015 -0.086526 0.203098 -0.274105 -0.040959 -0.235643 0.109451 0.351231 -0.044858 0.350939 0.127113 -0.304631 0.085678 -0.218679 -0.367062 -0.082627 -0.116732 -0.276121 -0.410463 -0.346440 0.318557 0.049915 0.048841 -0.343067 -0.160028 0.185778 0.073616 0.272415 -0.282907 -0.233861 -0.081021 0.375286 -0.017265 0.035194 0.315715 -0.277729 0.205940 0.265894 -0.100022 0.193739 -0.438823 0.210378 0.308800
342 0.022908 0.075406 0.048881 0.083811 -0.006103 0.298247 0.362366 0.326552 0.188938 0.031362 0.135960 0.232055 0.173155 -0.233998 -0.197356 0.242606 0.096668 0.003403 -0.051046 -0.040070 -0.190495 0.119832 -0.201984 0.217777 0.226633 0.032460 0.405675 -0.085784 -0.289151 0.194540 -0.041688 -0.162136 0.154950 0.037789 -0.212490 -0.089325 -0.380460 0.155680 0.045157 -0.004117 -0.140336 -0.200832 0.391047 -0.028157 0.287770 -0.222364 -0.033141 -0.233192 0.208207 -0.099426 -0.253027 0.088160 -0.185676 -0.029199 0.054582 -0.031001 0.181781 -0.224846 0.093718 0.290091
1065 0.059260 -0.010294 -0.017619 -0.011043 -0.002735 0.076332 0.272506 0.450773 0.191197 -0.261147 0.059711 0.267006 0.169313 -0.210553 -0.250516 0.320109 0.216678 0.058328 -0.092461 0.172634 -0.221909 -0.043053 -0.264986 0.141363 0.345704 -0.019558 0.401273 0.086204 -0.306205 0.093361 -0.173021 -0.335102 -0.091991 -0.087935 -0.287388 -0.351304 -0.359687 0.312280 0.071513 0.017630 -0.312822 -0.183692 0.218497 0.076140 0.263770 -0.269870 -0.208228 -0.118376 0.338672 -0.076459 -0.037130 0.246087 -0.219976 0.124506 0.193958 -0.111855 0.211960 -0.426498 0.180217 0.307447
1064 0.019013 0.023244 0.038954 0.049563 0.013646 0.089266 0.131131 0.236490 0.173617 -0.169314 0.037260 0.161103 0.023020 -0.082034 -0.134339 0.193989 0.113816 0.077917 -0.058117 0.081038 -0.093898 -0.062958 -0.065758 0.078595 0.112334 -0.035308 0.211168 0.073147 -0.168643 0.055090 -0.062550 -0.161513 -0.029587 -0.078215 -0.093583 -0.220508 -0.235661 0.132236 -0.003536 0.028193 -0.208603 -0.089146 0.133007 0.060828 0.170043 -0.173890 -0.063721 -0.083693 0.198472 -0.004480 0.007679 0.148050 -0.136564 0.104600 0.113714 -0.035778 0.117688 -0.228761 0.137348 0.211905
1249 0.028737 0.032949 0.017129 0.022249 0.008498 0.065879 0.131361 0.284654 0.172879 -0.174703 0.031715 0.151408 0.041049 -0.083138 -0.161617 0.225380 0.118148 0.073256 -0.069453 0.101223 -0.096632 -0.058331 -0.077796 0.092134 0.163041 -0.044698 0.238621 0.099761 -0.184906 0.062193 -0.080120 -0.198066 -0.035832 -0.117424 -0.123824 -0.253364 -0.226874 0.162106 0.010279 0.029627 -0.230123 -0.095805 0.117311 0.072167 0.157807 -0.173250 -0.107933 -0.060762 0.214977 -0.025917 0.016720 0.164349 -0.153223 0.104619 0.124715 -0.065215 0.103728 -0.267170 0.155283 0.222255
433 -0.120075 -0.242660 0.198411 0.128630 0.011734 0.138398 0.178054 0.511127 0.189063 -0.434800 -0.088485 0.585651 -0.233886 -0.261733 -0.248433 0.389712 0.572826 -0.032850 -0.223438 0.058092 0.073063 -0.266631 0.078823 0.103653 0.034325 -0.167121 0.276084 -0.023056 -0.269368 -0.061991 0.158234 -0.518539 -0.293668 -0.151759 -0.182992 -0.357462 -0.599805 0.336760 -0.018698 -0.073078 -0.443761 0.074140 0.330756 0.380551 0.458314 -0.444674 0.045400 -0.460858 0.588715 -0.065516 -0.180436 0.114559 -0.151161 0.056148 0.208897 0.137918 0.325647 -0.463383 0.539288 0.638598
96 0.003479 0.029749 0.043895 0.027648 -0.007924 0.074510 0.119760 0.231871 0.125970 -0.122476 0.020345 0.141283 0.026326 -0.089142 -0.132857 0.195356 0.092900 0.063555 -0.065997 0.070239 -0.065742 -0.037209 -0.065640 0.079937 0.107600 -0.037126 0.201148 0.063823 -0.166281 0.053476 -0.040248 -0.152772 -0.015428 -0.071151 -0.100096 -0.188896 -0.232158 0.117390 0.013083 0.014722 -0.178855 -0.092730 0.137544 0.047839 0.167103 -0.149403 -0.051170 -0.091777 0.180711 -0.024594 -0.023792 0.110685 -0.115637 0.067610 0.100202 -0.047054 0.101942 -0.206729 0.119444 0.201829
742 0.055544 0.046966 0.046001 0.035911 -0.023064 0.180948 0.276035 0.447053 0.224367 -0.119188 0.069636 0.257954 0.142658 -0.198298 -0.238189 0.347298 0.187418 0.010853 -0.104922 0.091329 -0.174937 -0.026487 -0.259385 0.188734 0.273068 -0.020233 0.444341 0.042439 -0.336708 0.114420 -0.087870 -0.300124 -0.009545 -0.046746 -0.252556 -0.287376 -0.380531 0.246504 0.038334 -0.010712 -0.284920 -0.214834 0.306880 0.059595 0.261382 -0.277585 -0.143381 -0.200344 0.267065 -0.123646 -0.086522 0.199476 -0.197956 0.062712 0.133529 -0.077074 0.187791 -0.383322 0.139932 0.304155
556 0.010366 -0.005776 0.030609 0.005138 -0.038154 0.070574 0.204620 0.377252 0.145357 -0.163385 0.040164 0.220539 0.110104 -0.185113 -0.200847 0.299663 0.166779 0.023725 -0.081586 0.132475 -0.134839 -0.048571 -0.210551 0.170001 0.269963 -0.035436 0.369771 0.077088 -0.240301 0.073223 -0.095415 -0.255267 -0.041424 -0.052380 -0.232286 -0.272784 -0.321135 0.201775 0.074046 0.000284 -0.240318 -0.187153 0.207280 0.078143 0.219188 -0.208574 -0.170778 -0.135157 0.255812 -0.085522 -0.043391 0.172361 -0.145227 0.061599 0.142964 -0.081634 0.156172 -0.311172 0.149291 0.224969
948 0.038876 -0.028753 -0.040947 0.009806 -0.050031 0.078439 0.250882 0.457983 0.230586 -0.213664 0.062451 0.269764 0.182981 -0.191707 -0.235669 0.355687 0.233114 0.066982 -0.067358 0.164244 -0.211200 -0.067820 -0.288427 0.197225 0.361808 -0.029376 0.464768 0.069607 -0.338504 0.133804 -0.118545 -0.300541 -0.109489 -0.096946 -0.280307 -0.330763 -0.338417 0.307463 0.128497 -0.001359 -0.322695 -0.159268 0.225648 0.079021 0.235881 -0.287195 -0.200486 -0.183064 0.345137 -0.069432 -0.104522 0.257909 -0.192104 0.136936 0.194951 -0.164051 0.205435 -0.417305 0.203851 0.273590
942 0.009419 0.042228 0.047593 0.031274 -0.029124 0.067431 0.108886 0.244915 0.118069 -0.115576 0.014801 0.133259 0.030417 -0.085617 -0.139680 0.203794 0.097141 0.041530 -0.073431 0.075971 -0.048728 -0.058119 -0.074521 0.092072 0.119140 -0.050187 0.225185 0.079286 -0.167655 0.048027 -0.039530 -0.156394 -0.024541 -0.084582 -0.117557 -0.190107 -0.213316 0.108773 0.025850 0.018768 -0.187090 -0.094517 0.136690 0.058792 0.155243 -0.156052 -0.061600 -0.097862 0.176692 -0.044016 -0.023343 0.095630 -0.100742 0.040911 0.086075 -0.055072 0.081874 -0.230838 0.112779 0.196132
157 0.004960 0.046994 0.025052 0.044485 -0.007209 0.117075 0.153064 0.304848 0.161667 -0.164398 0.043979 0.188667 0.038349 -0.104882 -0.169026 0.226173 0.104265 0.079675 -0.077818 0.096345 -0.112389 -0.051058 -0.089810 0.105624 0.147607 -0.045839 0.265154 0.078808 -0.200831 0.065849 -0.060904 -0.193262 -0.013863 -0.097023 -0.142638 -0.227117 -0.279924 0.146515 0.007088 0.031616 -0.215538 -0.105655 0.162964 0.063972 0.183975 -0.180308 -0.082727 -0.092612 0.224019 -0.024767 -0.013963 0.134265 -0.160472 0.086415 0.121836 -0.064492 0.111964 -0.272015 0.156304 0.229108
622 0.070570 0.014917 0.047039 0.032105 -0.009470 0.160265 0.272074 0.416573 0.221224 -0.141113 0.062433 0.254055 0.169644 -0.193533 -0.226992 0.326107 0.189305 0.002983 -0.088204 0.091453 -0.201653 -0.038748 -0.293409 0.200208 0.291473 0.001391 0.443919 0.036780 -0.306371 0.121598 -0.111170 -0.287844 -0.009623 -0.015015 -0.259796 -0.273607 -0.356082 0.246337 0.051683 -0.027283 -0.269274 -0.209306 0.306039 0.060259 0.233489 -0.267665 -0.172804 -0.205642 0.281512 -0.118728 -0.081912 0.215182 -0.164407 0.080651 0.149563 -0.081965 0.198274 -0.365098 0.130948 0.264774
492 0.016178 0.036954 0.045297 0.065154 0.020271 0.103365 0.145861 0.225274 0.167109 -0.135573 0.046721 0.164721 0.024242 -0.084898 -0.109062 0.176003 0.081467 0.072919 -0.048859 0.063048 -0.106981 -0.037208 -0.080661 0.084202 0.107653 -0.014566 0.212371 0.054591 -0.166348 0.057318 -0.066224 -0.143617 0.016111 -0.067401 -0.074953 -0.179426 -0.231584 0.111144 -0.020850 0.027867 -0.164653 -0.089740 0.159854 0.040774 0.169202 -0.164602 -0.051808 -0.092591 0.183553 -0.014436 -0.008457 0.135672 -0.121253 0.102958 0.098020 -0.029973 0.112623 -0.199212 0.110869 0.189627
930 0.003890 0.040153 0.049906 0.041877 -0.011481 0.073247 0.104223 0.234931 0.122612 -0.091159 0.035376 0.129267 0.034998 -0.091623 -0.128772 0.193025 0.070988 0.056863 -0.063738 0.073276 -0.054361 -0.049641 -0.076321 0.091493 0.108374 -0.046148 0.216141 0.061633 -0.155947 0.046955 -0.028119 -0.150429 -0.014331 -0.083364 -0.103617 -0.182888 -0.225521 0.092215 0.013101 0.028347 -0.175891 -0.108253 0.141888 0.049887 0.158963 -0.132859 -0.065971 -0.101039 0.154790 -0.054170 -0.017418 0.102797 -0.094071 0.025908 0.066039 -0.050212 0.081967 -0.213494 0.103552 0.198417
705 0.043494 -0.008208 0.029042 0.027671 0.012033 0.049955 0.174847 0.340198 0.176275 -0.218011 0.040319 0.211816 0.072950 -0.137265 -0.180039 0.242685 0.169670 0.055502 -0.078968 0.135962 -0.146464 -0.061263 -0.165328 0.094779 0.201852 -0.025388 0.284778 0.077114 -0.218625 0.054169 -0.113742 -0.264346 -0.061910 -0.081064 -0.189513 -0.272541 -0.298621 0.225148 0.009323 0.027052 -0.263545 -0.109631 0.171674 0.094310 0.202529 -0.214717 -0.135051 -0.093975 0.270092 -0.064974 -0.001526 0.198914 -0.151131 0.112189 0.141336 -0.063487 0.158807 -0.327994 0.153118 0.238996
1262 0.048265 0.031625 0.034084 0.018536 0.016099 0.107324 0.157840 0.411738 0.220930 -0.256632 0.000051 0.234815 0.047043 -0.105346 -0.178657 0.287536 0.200366 0.129784 -0.133293 0.177096 -0.127137 -0.111226 -0.082229 0.100904 0.186477 -0.079081 0.301169 0.151594 -0.256309 0.090033 -0.082888 -0.274480 -0.078040 -0.142480 -0.173552 -0.352290 -0.318238 0.238064 0.012972 0.024858 -0.323996 -0.132843 0.135500 0.107321 0.236686 -0.249346 -0.122084 -0.080861 0.303425 -0.025726 0.036963 0.224021 -0.223647 0.124875 0.172292 -0.094452 0.131825 -0.401985 0.206286 0.315146
587 0.031809 0.036647 0.015218 0.022122 -0.031161 0.150410 0.262485 0.390869 0.166574 -0.130137 0.059097 0.222991 0.132086 -0.195911 -0.215364 0.296089 0.133098 0.032748 -0.078617 0.104857 -0.156778 -0.001491 -0.213045 0.171173 0.274818 -0.017135 0.383727 0.050602 -0.274379 0.106775 -0.091895 -0.248136 -0.003194 -0.058671 -0.229824 -0.252125 -0.339457 0.203670 0.059717 0.002979 -0.221786 -0.195609 0.263262 0.057224 0.242858 -0.223858 -0.130211 -0.152638 0.247150 -0.077043 -0.089194 0.157266 -0.195537 0.060954 0.123947 -0.086243 0.171816 -0.326062 0.143134 0.269769
588 0.017014 0.030123 0.027575 0.038870 0.011316 0.091509 0.196678 0.349203 0.174971 -0.192988 0.092327 0.209367 0.083389 -0.114210 -0.179555 0.240035 0.097536 0.114338 -0.074957 0.143821 -0.147365 -0.055490 -0.093444 0.115019 0.202829 -0.077349 0.266977 0.081284 -0.221645 0.093465 -0.102083 -0.223755 -0.020406 -0.102716 -0.158920 -0.291839 -0.307940 0.175990 0.019525 0.035270 -0.220488 -0.121872 0.155664 0.035165 0.241262 -0.210628 -0.103289 -0.095274 0.245226 -0.016329 0.024254 0.183837 -0.184971 0.112082 0.147964 -0.044137 0.121239 -0.316329 0.153192 0.260891
972 0.032608 0.032501 0.046337 0.037164 -0.004879 0.088518 0.141243 0.333695 0.184114 -0.182756 0.034934 0.187162 0.061158 -0.095201 -0.186153 0.270035 0.150358 0.078268 -0.087286 0.124376 -0.103335 -0.071600 -0.100904 0.123470 0.179473 -0.068103 0.284094 0.101153 -0.218685 0.054905 -0.064445 -0.218418 -0.046690 -0.123074 -0.149290 -0.276312 -0.292122 0.172224 0.008166 0.030355 -0.260010 -0.112099 0.142170 0.073233 0.198894 -0.206786 -0.112089 -0.108502 0.236873 -0.046298 0.013668 0.160021 -0.158951 0.102940 0.148703 -0.085416 0.113106 -0.306146 0.154101 0.250918
1120 -0.059240 0.068004 0.009431 0.034681 0.028359 0.104108 0.121951 0.431632 0.206605 -0.612010 -0.009618 0.374011 0.159161 0.001924 -0.291616 0.301853 0.164173 0.370802 -0.155097 0.408332 -0.310371 -0.177306 -0.145282 0.084237 0.510141 -0.074611 0.253412 0.159081 -0.305230 0.027737 -0.140164 -0.416904 -0.208413 -0.405852 -0.280446 -0.653219 -0.347257 0.144051 0.107149 0.169598 -0.569065 -0.210183 0.107024 0.179566 0.308565 -0.362403 -0.143647 -0.018193 0.460236 -0.023034 0.091219 0.278155 -0.479651 0.392997 0.144669 -0.076542 0.260418 -0.656880 0.381566 0.567669
188 0.020584 0.042084 0.047799 -0.000891 -0.002378 0.085234 0.144035 0.389995 0.196316 -0.212238 0.031103 0.201714 0.067227 -0.110611 -0.217216 0.312635 0.159514 0.105081 -0.101785 0.158081 -0.086339 -0.082829 -0.078571 0.117558 0.206935 -0.096155 0.307114 0.140138 -0.246733 0.054928 -0.056485 -0.271881 -0.082206 -0.175429 -0.173783 -0.352966 -0.318116 0.199980 0.032947 0.054241 -0.299599 -0.129287 0.138015 0.090715 0.235906 -0.236854 -0.138671 -0.086562 0.264268 -0.040814 0.038606 0.175268 -0.179634 0.110697 0.156813 -0.103230 0.123702 -0.366951 0.199799 0.282156
778 0.034542 -0.005559 0.001853 -0.012227 -0.027693 0.076026 0.194984 0.362655 0.146195 -0.167944 0.020787 0.191841 0.125592 -0.152791 -0.200725 0.287099 0.157531 0.028836 -0.087904 0.124758 -0.161328 -0.049501 -0.189048 0.149801 0.270858 -0.039997 0.322845 0.071248 -0.230706 0.060984 -0.099081 -0.265592 -0.053638 -0.072445 -0.212336 -0.272469 -0.290858 0.212752 0.082224 0.010404 -0.231111 -0.160359 0.185998 0.073594 0.200562 -0.188936 -0.171344 -0.106909 0.232065 -0.071507 -0.034267 0.192073 -0.154998 0.079083 0.159388 -0.089961 0.158107 -0.297012 0.153599 0.222156
1043 0.090432 -0.033103 -0.077601 -0.027553 0.074159 0.174726 0.279734 0.639524 0.364820 -0.388772 0.005286 0.397542 0.170543 -0.167116 -0.326117 0.451725 0.271057 0.053530 -0.087577 0.268665 -0.205406 -0.015189 -0.141095 0.129728 0.429466 -0.151560 0.363221 0.137231 -0.368609 0.123599 -0.232471 -0.448081 -0.027560 -0.188555 -0.267341 -0.491264 -0.417139 0.324923 0.036978 0.061527 -0.370423 -0.240276 0.263659 0.126869 0.302632 -0.324177 -0.264935 -0.147885 0.422952 -0.018277 0.106302 0.280247 -0.417296 0.271830 0.372152 -0.105557 0.175934 -0.556366 0.322808 0.444697
603 0.025055 -0.012245 0.008956 -0.013376 -0.077325 0.097192 0.282160 0.469700 0.153954 -0.134215 0.055501 0.260733 0.211859 -0.263384 -0.271417 0.366610 0.179611 0.003415 -0.098716 0.135889 -0.197220 -0.013940 -0.300441 0.227541 0.372284 -0.043474 0.471030 0.048663 -0.307391 0.109734 -0.117363 -0.316067 -0.056259 -0.046163 -0.307044 -0.300173 -0.378009 0.263410 0.143987 -0.003842 -0.259787 -0.235403 0.277086 0.082309 0.265660 -0.237823 -0.216629 -0.193178 0.275279 -0.122666 -0.101470 0.199116 -0.175910 0.042508 0.151340 -0.123574 0.187844 -0.369415 0.157710 0.262894
1159 0.015974 0.028452 0.022413 0.035661 0.006407 0.096382 0.140910 0.256236 0.147494 -0.158185 0.030243 0.179089 0.039369 -0.100087 -0.135270 0.195963 0.105205 0.080730 -0.065778 0.086355 -0.103459 -0.043861 -0.084955 0.091871 0.129736 -0.042933 0.232637 0.071593 -0.190174 0.070853 -0.059629 -0.176251 -0.013308 -0.085157 -0.120713 -0.217799 -0.241189 0.131847 0.010700 0.014826 -0.185231 -0.096079 0.136640 0.056099 0.165191 -0.161375 -0.062986 -0.088416 0.204744 -0.023820 -0.017067 0.134438 -0.137037 0.077120 0.115907 -0.051056 0.109016 -0.233734 0.133245 0.205927
877 0.018824 0.024234 0.016869 0.030163 0.011778 0.109344 0.159439 0.249836 0.152431 -0.124800 0.035575 0.174155 0.065992 -0.098686 -0.121369 0.190189 0.104609 0.055973 -0.070298 0.065458 -0.108646 -0.023285 -0.078926 0.093560 0.150556 -0.018854 0.232849 0.045021 -0.182703 0.078375 -0.067638 -0.165908 -0.007967 -0.059094 -0.109738 -0.192792 -0.220738 0.134705 0.004342 0.022334 -0.189257 -0.087745 0.158826 0.032219 0.168284 -0.179183 -0.067908 -0.097221 0.182520 -0.027884 -0.016707 0.128492 -0.144896 0.087565 0.110137 -0.028240 0.112909 -0.237365 0.125460 0.208012
